<?xml version="1.0"?>
<MethodSetup Method="BDT::tZq">
  <GeneralInfo>
    <Info name="TMVA Release" value="4.2.1 [262657]"/>
    <Info name="ROOT Release" value="6.18/04 [397828]"/>
    <Info name="Creator" value="ntonon"/>
    <Info name="Date" value="Wed Aug  5 14:37:00 2020"/>
    <Info name="Host" value="Linux cmspcx36679 4.15.0-1079-oem #89-Ubuntu SMP Fri Mar 27 05:22:11 UTC 2020 x86_64 x86_64 x86_64 GNU/Linux"/>
    <Info name="Dir" value="/home/ntonon/Postdoc/TopEFT/Analysis"/>
    <Info name="Training events" value="20000"/>
    <Info name="TrainingTime" value="6.87982297e+00"/>
    <Info name="AnalysisType" value="Classification"/>
  </GeneralInfo>
  <Options>
    <Option name="V" modified="Yes">False</Option>
    <Option name="VerbosityLevel" modified="No">Default</Option>
    <Option name="VarTransform" modified="No">None</Option>
    <Option name="H" modified="Yes">False</Option>
    <Option name="CreateMVAPdfs" modified="Yes">True</Option>
    <Option name="IgnoreNegWeightsInTraining" modified="No">False</Option>
    <Option name="NTrees" modified="Yes">200</Option>
    <Option name="MaxDepth" modified="Yes">4</Option>
    <Option name="MinNodeSize" modified="No">5%</Option>
    <Option name="nCuts" modified="Yes">40</Option>
    <Option name="BoostType" modified="Yes">Grad</Option>
    <Option name="AdaBoostR2Loss" modified="No">quadratic</Option>
    <Option name="UseBaggedBoost" modified="No">False</Option>
    <Option name="Shrinkage" modified="Yes">1.000000e-01</Option>
    <Option name="AdaBoostBeta" modified="No">5.000000e-01</Option>
    <Option name="UseRandomisedTrees" modified="No">False</Option>
    <Option name="UseNvars" modified="No">3</Option>
    <Option name="UsePoissonNvars" modified="No">True</Option>
    <Option name="BaggedSampleFraction" modified="No">6.000000e-01</Option>
    <Option name="UseYesNoLeaf" modified="No">True</Option>
    <Option name="NegWeightTreatment" modified="Yes">pairnegweightsglobal</Option>
    <Option name="Css" modified="No">1.000000e+00</Option>
    <Option name="Cts_sb" modified="No">1.000000e+00</Option>
    <Option name="Ctb_ss" modified="No">1.000000e+00</Option>
    <Option name="Cbb" modified="No">1.000000e+00</Option>
    <Option name="NodePurityLimit" modified="No">5.000000e-01</Option>
    <Option name="SeparationType" modified="No">giniindex</Option>
    <Option name="RegressionLossFunctionBDTG" modified="No">huber</Option>
    <Option name="HuberQuantile" modified="No">7.000000e-01</Option>
    <Option name="DoBoostMonitor" modified="No">False</Option>
    <Option name="UseFisherCuts" modified="No">False</Option>
    <Option name="MinLinCorrForFisher" modified="No">8.000000e-01</Option>
    <Option name="UseExclusiveVars" modified="No">False</Option>
    <Option name="DoPreselection" modified="No">False</Option>
    <Option name="SigToBkgFraction" modified="No">1.000000e+00</Option>
    <Option name="PruneMethod" modified="No">nopruning</Option>
    <Option name="PruneStrength" modified="No">0.000000e+00</Option>
    <Option name="PruningValFraction" modified="No">5.000000e-01</Option>
    <Option name="SkipNormalization" modified="No">False</Option>
    <Option name="nEventsMin" modified="No">0</Option>
    <Option name="UseBaggedGrad" modified="Yes">False</Option>
    <Option name="GradBaggingFraction" modified="No">6.000000e-01</Option>
    <Option name="UseNTrainEvents" modified="No">0</Option>
    <Option name="NNodesMax" modified="No">0</Option>
  </Options>
  <Variables NVar="6">
    <Variable VarIndex="0" Expression="mTW" Label="mTW" Title="mTW" Unit="" Internal="mTW" Type="F" Min="1.82280708e-02" Max="1.20847827e+03"/>
    <Variable VarIndex="1" Expression="mHT" Label="mHT" Title="mHT" Unit="" Internal="mHT" Type="F" Min="5.48652687e+01" Max="3.28390698e+03"/>
    <Variable VarIndex="2" Expression="Mass_3l" Label="Mass_3l" Title="Mass_3l" Unit="" Internal="Mass_3l" Type="F" Min="3.57991829e+01" Max="1.55762695e+03"/>
    <Variable VarIndex="3" Expression="maxEtaJet" Label="maxEtaJet" Title="maxEtaJet" Unit="" Internal="maxEtaJet" Type="F" Min="-9.00000000e+00" Max="4.99999285e+00"/>
    <Variable VarIndex="4" Expression="jPrimeAbsEta" Label="jPrimeAbsEta" Title="jPrimeAbsEta" Unit="" Internal="jPrimeAbsEta" Type="F" Min="0.00000000e+00" Max="4.99951077e+00"/>
    <Variable VarIndex="5" Expression="lAsymmetry" Label="lAsymmetry" Title="lAsymmetry" Unit="" Internal="lAsymmetry" Type="F" Min="-2.49838185e+00" Max="2.49921632e+00"/>
  </Variables>
  <Spectators NSpec="0"/>
  <Classes NClass="2">
    <Class Name="Signal" Index="0"/>
    <Class Name="Background" Index="1"/>
  </Classes>
  <Transformations NTransformations="0"/>
  <MVAPdfs>
    <PDF Name="tZq_PDFSig" MinNSmooth="0" MaxNSmooth="0" InterpolMethod="2" KDE_type="1" KDE_iter="1" KDE_border="1" KDE_finefactor="1.0000000000000000e+00">
      <Histogram Name="BDT_tr_S_original" NBins="400" XMin="-9.8495775461196899e-01" XMax="9.7529804706573486e-01" HasEquidistantBins="1">
        0.00000000e+00 0.00000000e+00 0.00000000e+00 3.02178746e-02 3.52384366e-02 2.49269862e-02 5.34173097e-02 7.51989109e-02 3.73115905e-02 1.46145441e-01 7.45593795e-02 5.61312998e-02 1.10233841e-01 2.12572929e-01 5.81369240e-03 1.94865217e-01 1.78858284e-01 4.77298940e-02 5.28874950e-02 1.23537934e-01 1.90980193e-01 7.50931917e-02 7.37455854e-02 8.94113778e-02 2.39260489e-02 1.02201238e-01 1.18305597e-01 1.39349080e-01 2.18896918e-02 1.79722714e-01 1.63714452e-01 6.58398559e-02 9.45032730e-02 5.88236912e-02 1.74290851e-02 1.81429806e-02 1.35504627e-01 1.65511479e-01 9.35373089e-02 1.07162102e-01 6.45048338e-02 4.90427275e-02 2.47234557e-02 7.09782470e-02 9.42156654e-02 6.57276310e-02 1.77827786e-01 0.00000000e+00 1.77766047e-01 1.40358538e-01 5.91332507e-02 1.01472728e-01 1.09125024e-01 2.00234856e-01 1.21880233e-01 5.63987284e-02 1.23010412e-01 1.03698807e-01 4.48917282e-02 1.35555333e-01 2.33637236e-01 4.39385333e-02 0.00000000e+00 8.17161992e-02 3.69333175e-02 1.14482298e-01 1.27849091e-01 6.55208925e-02 6.61455811e-02 1.47411278e-01 5.48900221e-02 1.47198098e-01 2.76024283e-02 1.19124233e-01 9.87392670e-02 1.25515034e-01 5.31886498e-02 2.81241191e-01 9.55767533e-02 2.51564882e-01 1.52795665e-01 1.79225946e-01 2.96895603e-02 1.60869135e-01 6.72593691e-02 7.56801316e-02 1.18385018e-01 3.93593684e-02 2.40067617e-01 1.42693173e-01 2.93760347e-01 2.29227745e-01 1.31763429e-01 5.27119890e-02 1.54967617e-01 8.46489480e-02 1.17781874e-01 1.47874872e-01 8.12258725e-02 1.28830198e-01 1.84387878e-01 1.70977906e-01 9.33509872e-02 9.30699503e-02 1.65748615e-01 1.09079204e-01 2.10465912e-01 1.10147163e-01 1.09326938e-01 7.80058540e-02 1.42316684e-01 7.64145243e-02 2.13539872e-01 8.11174597e-02 1.78587344e-01 3.45123674e-02 2.11590902e-01 2.00518301e-01 1.78739666e-01 9.91377598e-02 3.00084411e-01 2.31291232e-01 9.88895422e-02 1.48198603e-01 1.97539837e-01 1.95171694e-01 7.48282703e-02 1.58228798e-01 1.68429723e-01 1.51093075e-01 7.62858168e-02 1.25110615e-01 6.27434155e-02 1.03555562e-01 2.16735813e-01 1.32248577e-01 1.87694728e-01 2.58054726e-01 8.04195776e-02 1.51390212e-01 1.94154721e-01 1.19749916e-01 2.47690287e-01 2.43623443e-01 1.70056619e-01 1.65343035e-01 1.76026785e-01 1.33712800e-01 1.98471381e-01 1.59952469e-01 2.83688260e-01 1.36975811e-01 1.66917831e-01 1.87112530e-01 2.39334022e-01 2.60227811e-01 2.79917581e-01 2.23594779e-01 2.46201006e-01 2.47448729e-01 2.04698207e-01 2.30187691e-01 3.13038268e-01 3.36328136e-01 2.38640783e-01 1.69793343e-01 3.37751892e-01 2.05193317e-01 3.55366966e-01 4.21170395e-01 2.14668421e-01 2.39443803e-01 2.63021052e-01 1.73034169e-01 3.32914533e-01 3.23503748e-01 2.88246713e-01 3.95919199e-01 3.69737944e-01 1.69746880e-01 1.36506224e-01 1.88781081e-01 1.90693869e-01 2.97991721e-01 3.42182418e-01 2.73949795e-01 3.07610986e-01 3.18483886e-01 2.10571089e-01 3.06711735e-01 2.89480213e-01 2.81494379e-01 1.92101578e-01 3.66792760e-01 3.14870849e-01 2.93910118e-01 3.16793216e-01 2.80163339e-01 3.02521627e-01 3.18359201e-01 4.48234198e-01 2.45533470e-01 3.22622976e-01 4.39667771e-01 4.14493393e-01 1.92706409e-01 1.97236744e-01 2.98232277e-01 5.05035370e-01 4.60182893e-01 2.75693188e-01 4.71893459e-01 5.30486621e-01 4.50240534e-01 2.51304784e-01 3.62054621e-01 3.73334632e-01 5.05761554e-01 3.80251862e-01 3.66721754e-01 4.17752536e-01 3.94873981e-01 2.90254617e-01 3.90441482e-01 3.40911969e-01 2.99306075e-01 4.31962382e-01 3.30189716e-01 4.13674148e-01 4.67324567e-01 4.32273431e-01 4.41494582e-01 4.47205185e-01 7.18924009e-01 5.37133646e-01 6.82202138e-01 5.20474552e-01 5.64985472e-01 3.91000071e-01 2.56769334e-01 6.01944826e-01 8.33189831e-01 6.69320795e-01 4.99320242e-01 4.71423756e-01 5.58195693e-01 5.59637299e-01 4.81162854e-01 6.13332570e-01 5.37663972e-01 4.21985538e-01 5.66083619e-01 5.46764115e-01 4.73206369e-01 6.01233428e-01 7.08469734e-01 6.70745945e-01 3.67990584e-01 6.19150138e-01 6.98504057e-01 7.67292458e-01 6.06662681e-01 5.89876569e-01 6.45087525e-01 6.65767379e-01 5.17940707e-01 6.76149760e-01 5.74064807e-01 4.53082495e-01 5.73575577e-01 6.86933004e-01 5.63374973e-01 9.00882681e-01 6.79937361e-01 6.95363926e-01 7.47564593e-01 6.23875662e-01 7.66642584e-01 7.85657788e-01 5.97628278e-01 4.69500017e-01 8.42402424e-01 9.41693805e-01 6.79725175e-01 9.29140496e-01 7.76336506e-01 7.89778580e-01 8.54050122e-01 8.49861833e-01 8.68097518e-01 7.35260850e-01 6.74830127e-01 7.19661111e-01 6.79369674e-01 8.24596859e-01 7.31527606e-01 1.16395591e+00 9.01274842e-01 9.99939250e-01 1.15781479e+00 8.57503270e-01 8.94635027e-01 8.88377910e-01 7.20525537e-01 6.87726315e-01 8.56106404e-01 1.05201100e+00 7.75155305e-01 1.11641438e+00 8.04332049e-01 1.13574462e+00 8.56576336e-01 9.70099148e-01 9.80419753e-01 7.52971438e-01 1.13489519e+00 1.04109513e+00 8.90968820e-01 6.29660490e-01 1.16289255e+00 1.03818105e+00 9.44238783e-01 7.82852650e-01 1.32123396e+00 1.14253701e+00 1.10972652e+00 9.35140512e-01 9.74807573e-01 8.96872790e-01 1.09859960e+00 8.85654707e-01 8.42737829e-01 1.21663995e+00 8.35682993e-01 1.04800168e+00 1.29054066e+00 1.16362012e+00 9.19210534e-01 1.06141661e+00 1.04036156e+00 1.16904559e+00 1.24406802e+00 1.05897383e+00 1.20132004e+00 9.02828307e-01 1.11131394e+00 1.19940283e+00 1.25628254e+00 1.24832663e+00 1.08501626e+00 1.10738962e+00 1.17099379e+00 1.24645235e+00 1.20737896e+00 1.45411371e+00 1.52455831e+00 1.47203838e+00 1.12448171e+00 1.34845873e+00 1.33376627e+00 1.72707971e+00 1.41329608e+00 1.46484889e+00 1.31930701e+00 1.56205470e+00 1.56369821e+00 1.66388740e+00 1.76839218e+00 1.56530784e+00 1.93426781e+00 1.69166629e+00 1.37891681e+00 1.32856752e+00 1.58179412e+00 1.43447552e+00 1.80210944e+00 2.04243202e+00 1.95177429e+00 9.08356525e-01 1.03005444e+00 1.68167373e+00 1.34515578e+00 1.54610401e+00 1.21657654e+00 1.31558296e+00 1.45973359e+00 1.40360053e+00 1.67839584e+00 1.42141636e+00 1.66261813e+00 1.34630079e+00 1.49127894e+00 8.72860036e-01 8.92960220e-01 6.86590745e-01 5.37665464e-01 1.93339124e-01 1.39944862e-01 8.80254298e-02 8.64837715e-02 
      </Histogram>
    </PDF>
    <PDF Name="tZq_PDFBkg" MinNSmooth="0" MaxNSmooth="0" InterpolMethod="2" KDE_type="1" KDE_iter="1" KDE_border="1" KDE_finefactor="1.0000000000000000e+00">
      <Histogram Name="BDT_tr_B_original" NBins="400" XMin="-9.8495775461196899e-01" XMax="9.7529804706573486e-01" HasEquidistantBins="1">
        3.54884042e+00 1.50858068e+00 1.47333696e+00 3.19880448e+00 5.46885708e+00 8.49159313e-01 1.17420635e+00 2.01933804e+00 3.64694837e+00 3.41092216e+00 1.12014331e+00 3.05027884e+00 4.16847777e+00 2.14885915e+00 2.19334956e+00 3.40891206e+00 1.10650458e+00 1.27169835e+00 1.28029044e+00 2.18362315e+00 3.06212075e+00 1.42340348e+00 9.36833909e-01 1.33664073e+00 9.82551519e-01 1.00688713e+00 1.19553974e+00 2.79732868e+00 1.02211747e+00 1.02581088e+00 6.68847285e-01 1.18519697e+00 9.38082584e-01 1.27953454e+00 1.76736819e+00 3.68466450e+00 1.28150140e+00 1.38274875e+00 6.97265474e-01 7.66127073e-01 3.70400746e-01 1.12076216e+00 9.42807482e-01 7.93236289e-01 1.18846263e+00 4.83860888e-01 3.89185796e-01 9.22813452e-01 2.40304393e+00 1.89345558e+00 6.24868975e-01 6.33844028e-01 8.52357662e-01 4.95735868e-01 3.83268966e-01 1.72184175e+00 1.71077909e+00 4.03427101e-01 4.13555735e-01 2.57795101e-01 1.19269036e+00 2.09812692e-01 6.61926024e-01 1.61739145e+00 3.60573580e-01 5.23809549e-01 7.37004077e-01 2.52310916e-01 6.12112901e-01 4.87520624e-01 6.45933910e-01 6.02105351e-01 6.65929702e-01 7.28106059e-01 4.59254207e-01 3.51027872e-01 7.27520079e-01 1.11477479e+00 6.11527703e-01 5.14060997e-01 2.91198693e-01 1.11282236e+00 2.29159888e-01 2.77463969e+00 2.21763587e-01 1.28882809e+00 1.42804202e-01 7.11331210e-01 6.03572998e-01 4.22400271e-01 5.41769448e-01 4.86617206e-01 1.32639490e-01 2.07079065e-01 5.68804434e-01 6.56682765e-01 6.73265150e-01 5.94930087e-01 5.49543940e-01 6.04690333e-01 1.81184185e-01 4.58664587e-01 3.30490537e-01 4.37491581e-01 2.65499761e-01 5.41264138e-01 5.74104083e-01 3.14239372e-01 3.92031150e-01 2.07698160e-01 9.91417777e-01 4.06678669e-01 1.36184214e+00 7.37066601e-01 7.95069493e-01 2.38778871e-01 2.14387833e-01 3.70052990e-01 3.22751207e-01 2.47417435e-01 2.66381895e-01 2.91977264e-01 3.99995551e-01 3.42331824e-01 2.87781582e-01 3.69627132e-01 4.49103188e-01 2.33548698e-01 6.31411809e-02 3.63995393e-01 3.17804835e-01 4.77010629e-01 4.83070527e-01 4.02807375e-01 5.88619820e-01 2.74369252e-01 4.76372652e-01 3.11773320e-01 3.30128172e-01 2.39554023e-01 3.43480186e-01 4.84846671e-01 5.34004327e-01 2.49799437e-01 4.03326629e-01 4.66733701e-01 2.67049458e-01 2.60180704e-02 2.45319239e-01 3.96201034e-01 3.56968084e-01 3.14248648e-01 4.03027356e-01 2.62375425e-01 3.54330206e-01 5.02600847e-01 3.43826220e-01 3.68697825e-01 5.03255711e-01 2.00795142e-01 3.34530102e-01 1.81441109e-01 1.60696606e-01 3.18032302e-01 1.33642483e-01 9.60529464e-02 7.15791159e-01 4.45248776e-01 2.12170338e-01 3.44029642e-01 7.74250650e-01 3.50729561e-01 2.28733764e-01 3.25984801e-01 6.23746673e-01 2.73125396e-01 3.97923705e-01 2.50344481e-01 3.30918272e-01 6.08437739e-01 3.15397299e-01 1.92668330e-01 1.67977290e-01 3.99347114e-01 1.99530928e-01 2.05711025e-01 7.51841206e-02 2.45422962e-01 2.34576221e-01 1.55737762e-01 2.48024122e-01 2.75373051e-01 1.14588666e-01 4.28098691e-01 6.65737995e-01 2.03539720e-01 1.44193848e-01 4.25731644e-01 2.62936217e-01 9.36598954e-01 5.08687177e-01 6.24269126e-01 3.66158724e-01 6.08157312e-01 4.79566125e-01 4.34457379e-01 7.67887417e-02 7.32448452e-02 3.00421526e-01 3.88635649e-01 1.52584682e-01 2.91253984e-01 2.79192180e-01 6.61775869e-01 2.45423083e-01 3.93157704e-01 2.64421244e-01 1.88444761e-01 1.67612259e-01 2.32282910e-01 5.19615020e-01 2.01483335e-01 4.11052212e-01 6.72305748e-01 4.13442770e-01 2.47388191e-01 6.01228917e-01 3.67936175e-01 4.49256306e-01 1.70371881e-01 2.95549689e-01 1.41214447e-01 7.12659287e-01 3.33114193e-01 2.85162115e-01 3.80993636e-01 3.03026312e-01 5.05965889e-01 3.62119013e-01 5.45611143e-01 1.70360382e-01 4.75255243e-01 3.05315545e-01 2.56923530e-01 3.75422922e-01 7.35082741e-01 3.08217133e-01 2.38854464e-01 1.80829895e-01 3.17192363e-01 1.85751968e-01 2.33111523e-01 1.08253941e-01 1.58967158e-01 2.46531020e-01 3.79319053e-01 1.64185470e-01 2.36916227e-01 1.00621249e-01 2.06828655e-01 6.24263926e-02 1.30186430e-01 2.65883007e-01 2.47971706e-01 2.80953135e-01 2.19156049e-01 2.72898624e-01 3.49159950e-01 1.80275590e-01 3.07723578e-01 2.05821045e-01 1.86800751e-01 1.54445900e-01 1.92361783e-01 3.63087411e-01 5.53548794e-02 9.50508891e-01 4.35136543e-02 2.35587195e-01 3.30137327e-01 1.59974622e-01 1.84958471e-01 3.16920912e-01 1.06116173e-01 2.74957922e-01 4.25199517e-01 1.44289700e-01 9.84285744e-02 3.49038799e-01 4.48981523e-01 3.28480305e-01 3.66081315e-01 3.42306655e-01 7.07005403e-01 2.74707337e-01 1.97039690e-01 6.44210263e-02 3.97720169e-01 6.30063433e-02 2.75407103e-01 2.73495497e-01 3.65127684e-01 2.75957740e-01 2.25408607e-01 6.15530870e-01 3.22450805e-01 6.49322979e-02 4.00981845e-01 5.54775586e-01 4.00985401e-01 2.69532715e-01 6.85702422e-01 3.34113647e-01 1.82304688e-01 2.69449022e-01 1.99204759e-01 4.23183526e-01 1.95356582e-01 1.35822051e-01 1.84886745e-01 2.24250076e-01 4.33598026e-01 2.00514911e-01 2.05730492e-01 2.70151376e-01 1.02295224e-01 3.62725564e-01 1.09252671e-01 2.90454572e-01 3.22034254e-01 1.31194466e-01 1.80144859e-01 1.10819287e-01 3.62748940e-01 1.64474487e-01 4.13110736e-02 1.76137406e-01 3.50283100e-01 2.89394820e-02 1.66263288e-01 4.96263170e-02 9.84441856e-02 3.46752115e-01 3.20805237e-01 1.36999424e-02 1.84577509e-01 7.72222059e-02 3.49025606e-01 1.89691399e-02 2.01595903e-01 6.94235169e-02 2.79555817e-01 3.37576059e-02 2.91422730e-01 2.19515827e-02 1.84338529e-01 1.01603901e-01 1.72102214e-02 5.51606132e-02 1.06765340e-01 1.14540787e-01 1.71437109e-01 2.79419662e-01 4.53227886e-02 2.03313541e-01 4.22547372e-01 5.78461245e-02 1.40957439e-02 1.67121106e-01 6.83369848e-02 1.92752481e-02 4.85512249e-02 8.03736281e-02 5.51826838e-02 8.45072542e-02 5.61158694e-02 2.25553591e-02 4.73835153e-02 7.92036864e-02 8.87201605e-02 1.86734034e-02 6.74669462e-02 2.02772148e-01 6.68248294e-02 3.85303040e-02 1.74766443e-01 1.20379501e-02 7.40245664e-02 1.46921811e-02 1.37952005e-02 7.32334660e-02 4.66918260e-02 1.04568498e-02 9.12570017e-02 1.08917400e-02 1.30076093e-02 1.84578787e-03 0.00000000e+00 7.50803709e-03 3.19747127e-03 
      </Histogram>
    </PDF>
  </MVAPdfs>
  <Weights NTrees="200" AnalysisType="1">
    <BinaryTree type="DecisionTree" boostWeight="1.0000000000000000e+00" itree="0">
      <Node pos="s" depth="0" NCoef="0" IVar="4" Cut="3.6581787467002869e-01" cType="1" res="1.1698730964740541e-15" rms="5.0000000000000000e-01" purity="5.0000000000000000e-01" nType="0">
        <Node pos="l" depth="1" NCoef="0" IVar="4" Cut="8.9202858507633209e-03" cType="1" res="-3.3129552006721497e-01" rms="3.7449070811271667e-01" purity="1.6870449483394623e-01" nType="0">
          <Node pos="l" depth="2" NCoef="0" IVar="3" Cut="5.5951869487762451e-01" cType="1" res="-3.8692182302474976e-01" rms="3.1668832898139954e-01" purity="1.1307817697525024e-01" nType="0">
            <Node pos="l" depth="3" NCoef="0" IVar="0" Cut="5.1064823150634766e+01" cType="1" res="-4.4442963600158691e-01" rms="2.2909018397331238e-01" purity="5.5570375174283981e-02" nType="0">
              <Node pos="l" depth="4" NCoef="0" IVar="-1" Cut="0.0000000000000000e+00" cType="1" res="-9.4027489423751831e-02" rms="1.7020808160305023e-01" purity="2.9862560331821442e-02" nType="-99"/>
              <Node pos="r" depth="4" NCoef="0" IVar="-1" Cut="0.0000000000000000e+00" cType="1" res="-8.2786142826080322e-02" rms="2.8046631813049316e-01" purity="8.6069270968437195e-02" nType="-99"/>
            </Node>
            <Node pos="r" depth="3" NCoef="0" IVar="3" Cut="1.7515889406204224e+00" cType="1" res="-3.1144770979881287e-01" rms="3.9115256071090698e-01" purity="1.8855229020118713e-01" nType="0">
              <Node pos="l" depth="4" NCoef="0" IVar="-1" Cut="0.0000000000000000e+00" cType="1" res="-7.0432968437671661e-02" rms="3.5493651032447815e-01" purity="1.4783516526222229e-01" nType="-99"/>
              <Node pos="r" depth="4" NCoef="0" IVar="-1" Cut="0.0000000000000000e+00" cType="1" res="-5.4750435054302216e-02" rms="4.1840142011642456e-01" purity="2.2624784708023071e-01" nType="-99"/>
            </Node>
          </Node>
          <Node pos="r" depth="2" NCoef="0" IVar="-1" Cut="0.0000000000000000e+00" cType="1" res="-1.8036264926195145e-02" rms="4.9180009961128235e-01" purity="4.0981867909431458e-01" nType="-99"/>
        </Node>
        <Node pos="r" depth="1" NCoef="0" IVar="1" Cut="2.5798068237304688e+02" cType="1" res="1.8575251102447510e-01" rms="4.6421548724174500e-01" purity="6.8575251102447510e-01" nType="0">
          <Node pos="l" depth="2" NCoef="0" IVar="-1" Cut="0.0000000000000000e+00" cType="1" res="-7.2811860591173172e-03" rms="4.9867284297943115e-01" purity="4.6359404921531677e-01" nType="-99"/>
          <Node pos="r" depth="2" NCoef="0" IVar="4" Cut="1.8350570201873779e+00" cType="1" res="2.3630203306674957e-01" rms="4.4063743948936462e-01" purity="7.3630201816558838e-01" nType="0">
            <Node pos="l" depth="3" NCoef="0" IVar="4" Cut="9.3993592262268066e-01" cType="1" res="1.0740757733583450e-01" rms="4.8832735419273376e-01" purity="6.0740762948989868e-01" nType="0">
              <Node pos="l" depth="4" NCoef="0" IVar="-1" Cut="0.0000000000000000e+00" cType="1" res="4.5864293351769447e-03" rms="4.9947383999824524e-01" purity="5.2293217182159424e-01" nType="-99"/>
              <Node pos="r" depth="4" NCoef="0" IVar="-1" Cut="0.0000000000000000e+00" cType="1" res="3.0663335695862770e-02" rms="4.7591385245323181e-01" purity="6.5331667661666870e-01" nType="-99"/>
            </Node>
            <Node pos="r" depth="3" NCoef="0" IVar="1" Cut="3.5942330932617188e+02" cType="1" res="3.4946468472480774e-01" rms="3.5759535431861877e-01" purity="8.4946465492248535e-01" nType="0">
              <Node pos="l" depth="4" NCoef="0" IVar="-1" Cut="0.0000000000000000e+00" cType="1" res="5.6371275335550308e-02" rms="4.1298544406890869e-01" purity="7.8185635805130005e-01" nType="-99"/>
              <Node pos="r" depth="4" NCoef="0" IVar="-1" Cut="0.0000000000000000e+00" cType="1" res="7.8476399183273315e-02" rms="3.0989736318588257e-01" purity="8.9238196611404419e-01" nType="-99"/>
            </Node>
          </Node>
        </Node>
      </Node>
    </BinaryTree>
    <BinaryTree type="DecisionTree" boostWeight="1.0000000000000000e+00" itree="1">
      <Node pos="s" depth="0" NCoef="0" IVar="4" Cut="3.6581787467002869e-01" cType="1" res="-7.3037185757129919e-06" rms="4.8370811343193054e-01" purity="5.0000000000000000e-01" nType="0">
        <Node pos="l" depth="1" NCoef="0" IVar="4" Cut="8.9202858507633209e-03" cType="1" res="-2.9823538661003113e-01" rms="3.6995279788970947e-01" purity="1.6870449483394623e-01" nType="0">
          <Node pos="l" depth="2" NCoef="0" IVar="3" Cut="-8.6585884094238281e+00" cType="1" res="-3.4831485152244568e-01" rms="3.1505829095840454e-01" purity="1.1307817697525024e-01" nType="0">
            <Node pos="l" depth="3" NCoef="0" IVar="-1" Cut="0.0000000000000000e+00" cType="1" res="-8.3493001759052277e-02" rms="1.9893516600131989e-01" purity="4.1397225111722946e-02" nType="-99"/>
            <Node pos="r" depth="3" NCoef="0" IVar="3" Cut="1.5847867727279663e+00" cType="1" res="-2.9295670986175537e-01" rms="3.7780719995498657e-01" purity="1.7334912717342377e-01" nType="0">
              <Node pos="l" depth="4" NCoef="0" IVar="-1" Cut="0.0000000000000000e+00" cType="1" res="-6.6456586122512817e-02" rms="3.3743965625762939e-01" purity="1.3128590583801270e-01" nType="-99"/>
              <Node pos="r" depth="4" NCoef="0" IVar="-1" Cut="0.0000000000000000e+00" cType="1" res="-4.9952559173107147e-02" rms="4.1614660620689392e-01" purity="2.2290706634521484e-01" nType="-99"/>
            </Node>
          </Node>
          <Node pos="r" depth="2" NCoef="0" IVar="-1" Cut="0.0000000000000000e+00" cType="1" res="-1.6238112002611160e-02" rms="4.9180009961128235e-01" purity="4.0981867909431458e-01" nType="-99"/>
        </Node>
        <Node pos="r" depth="1" NCoef="0" IVar="4" Cut="2.2874128818511963e+00" cType="1" res="1.6720478236675262e-01" rms="4.5890480279922485e-01" purity="6.8575251102447510e-01" nType="0">
          <Node pos="l" depth="2" NCoef="0" IVar="1" Cut="3.2147619628906250e+02" cType="1" res="8.8027521967887878e-02" rms="4.8596137762069702e-01" purity="6.0091602802276611e-01" nType="0">
            <Node pos="l" depth="3" NCoef="0" IVar="1" Cut="2.6106802368164062e+02" cType="1" res="-4.1479550302028656e-02" rms="4.9598950147628784e-01" purity="4.6337801218032837e-01" nType="0">
              <Node pos="l" depth="4" NCoef="0" IVar="-1" Cut="0.0000000000000000e+00" cType="1" res="-2.4768477305769920e-02" rms="4.8318636417388916e-01" purity="3.7314724922180176e-01" nType="-99"/>
              <Node pos="r" depth="4" NCoef="0" IVar="-1" Cut="0.0000000000000000e+00" cType="1" res="1.0774540714919567e-02" rms="4.9354189634323120e-01" purity="5.6778800487518311e-01" nType="-99"/>
            </Node>
            <Node pos="r" depth="3" NCoef="0" IVar="4" Cut="1.1163369417190552e+00" cType="1" res="1.5865130722522736e-01" rms="4.6546167135238647e-01" purity="6.7591929435729980e-01" nType="0">
              <Node pos="l" depth="4" NCoef="0" IVar="-1" Cut="0.0000000000000000e+00" cType="1" res="1.1292116716504097e-02" rms="4.9584463238716125e-01" purity="5.6178724765777588e-01" nType="-99"/>
              <Node pos="r" depth="4" NCoef="0" IVar="-1" Cut="0.0000000000000000e+00" cType="1" res="4.2646311223506927e-02" rms="4.3907338380813599e-01" purity="7.3622667789459229e-01" nType="-99"/>
            </Node>
          </Node>
          <Node pos="r" depth="2" NCoef="0" IVar="1" Cut="2.9776861572265625e+02" cType="1" res="2.8902968764305115e-01" rms="3.8310775160789490e-01" purity="8.1628489494323730e-01" nType="0">
            <Node pos="l" depth="3" NCoef="0" IVar="-1" Cut="0.0000000000000000e+00" cType="1" res="3.5175595432519913e-02" rms="4.6181583404541016e-01" purity="6.8477100133895874e-01" nType="-99"/>
            <Node pos="r" depth="3" NCoef="0" IVar="3" Cut="2.7504248619079590e+00" cType="1" res="3.4229829907417297e-01" rms="3.2657358050346375e-01" purity="8.7807261943817139e-01" nType="0">
              <Node pos="l" depth="4" NCoef="0" IVar="-1" Cut="0.0000000000000000e+00" cType="1" res="5.4387122392654419e-02" rms="3.9420416951179504e-01" purity="8.0637884140014648e-01" nType="-99"/>
              <Node pos="r" depth="4" NCoef="0" IVar="-1" Cut="0.0000000000000000e+00" cType="1" res="7.5314305722713470e-02" rms="2.8521382808685303e-01" purity="9.1034042835235596e-01" nType="-99"/>
            </Node>
          </Node>
        </Node>
      </Node>
    </BinaryTree>
    <BinaryTree type="DecisionTree" boostWeight="1.0000000000000000e+00" itree="2">
      <Node pos="s" depth="0" NCoef="0" IVar="4" Cut="6.0969644784927368e-01" cType="1" res="-3.5656368709169328e-05" rms="4.7000956535339355e-01" purity="5.0000000000000000e-01" nType="0">
        <Node pos="l" depth="1" NCoef="0" IVar="4" Cut="1.4850815758109093e-02" cType="1" res="-2.4533757567405701e-01" rms="3.8803741335868835e-01" purity="1.9887450337409973e-01" nType="0">
          <Node pos="l" depth="2" NCoef="0" IVar="3" Cut="-8.6585884094238281e+00" cType="1" res="-3.1316083669662476e-01" rms="3.1439745426177979e-01" purity="1.1371963471174240e-01" nType="0">
            <Node pos="l" depth="3" NCoef="0" IVar="-1" Cut="0.0000000000000000e+00" cType="1" res="-7.6875835657119751e-02" rms="1.9894059002399445e-01" purity="4.1397225111722946e-02" nType="-99"/>
            <Node pos="r" depth="3" NCoef="0" IVar="3" Cut="1.5847867727279663e+00" cType="1" res="-2.6281473040580750e-01" rms="3.7821042537689209e-01" purity="1.7442926764488220e-01" nType="0">
              <Node pos="l" depth="4" NCoef="0" IVar="-1" Cut="0.0000000000000000e+00" cType="1" res="-6.0536477714776993e-02" rms="3.3840933442115784e-01" purity="1.3231800496578217e-01" nType="-99"/>
              <Node pos="r" depth="4" NCoef="0" IVar="-1" Cut="0.0000000000000000e+00" cType="1" res="-4.5130725950002670e-02" rms="4.1679027676582336e-01" purity="2.2401422262191772e-01" nType="-99"/>
            </Node>
          </Node>
          <Node pos="r" depth="2" NCoef="0" IVar="3" Cut="1.6446406841278076e+00" cType="1" res="-6.5575756132602692e-02" rms="4.9311965703964233e-01" purity="4.2457276582717896e-01" nType="0">
            <Node pos="l" depth="3" NCoef="0" IVar="-1" Cut="0.0000000000000000e+00" cType="1" res="-3.3780857920646667e-02" rms="4.6517783403396606e-01" purity="3.2039180397987366e-01" nType="-99"/>
            <Node pos="r" depth="3" NCoef="0" IVar="-1" Cut="0.0000000000000000e+00" cType="1" res="7.4250791221857071e-03" rms="4.9867776036262512e-01" purity="5.2824610471725464e-01" nType="-99"/>
          </Node>
        </Node>
        <Node pos="r" depth="1" NCoef="0" IVar="1" Cut="2.5798068237304688e+02" cType="1" res="1.6514708101749420e-01" rms="4.4773563742637634e-01" purity="7.0277351140975952e-01" nType="0">
          <Node pos="l" depth="2" NCoef="0" IVar="-1" Cut="0.0000000000000000e+00" cType="1" res="-2.7592205442488194e-03" rms="4.9652746319770813e-01" purity="4.8366746306419373e-01" nType="-99"/>
          <Node pos="r" depth="2" NCoef="0" IVar="4" Cut="1.8940857648849487e+00" cType="1" res="2.0436054468154907e-01" rms="4.2639896273612976e-01" purity="7.5079160928726196e-01" nType="0">
            <Node pos="l" depth="3" NCoef="0" IVar="2" Cut="1.4715243530273438e+02" cType="1" res="9.7202114760875702e-02" rms="4.8274871706962585e-01" purity="6.2360548973083496e-01" nType="0">
              <Node pos="l" depth="4" NCoef="0" IVar="-1" Cut="0.0000000000000000e+00" cType="1" res="5.8029028587043285e-03" rms="4.9467927217483521e-01" purity="5.5388212203979492e-01" nType="-99"/>
              <Node pos="r" depth="4" NCoef="0" IVar="-1" Cut="0.0000000000000000e+00" cType="1" res="2.7930680662393570e-02" rms="4.7038900852203369e-01" purity="6.6641670465469360e-01" nType="-99"/>
            </Node>
            <Node pos="r" depth="3" NCoef="0" IVar="1" Cut="3.5942330932617188e+02" cType="1" res="2.9394030570983887e-01" rms="3.4837633371353149e-01" purity="8.5711359977722168e-01" nType="0">
              <Node pos="l" depth="4" NCoef="0" IVar="-1" Cut="0.0000000000000000e+00" cType="1" res="4.9574911594390869e-02" rms="4.0095603466033936e-01" purity="7.9805129766464233e-01" nType="-99"/>
              <Node pos="r" depth="4" NCoef="0" IVar="-1" Cut="0.0000000000000000e+00" cType="1" res="6.6337525844573975e-02" rms="3.0613034963607788e-01" purity="8.9480412006378174e-01" nType="-99"/>
            </Node>
          </Node>
        </Node>
      </Node>
    </BinaryTree>
    <BinaryTree type="DecisionTree" boostWeight="1.0000000000000000e+00" itree="3">
      <Node pos="s" depth="0" NCoef="0" IVar="4" Cut="6.0969644784927368e-01" cType="1" res="-6.5847241785377264e-05" rms="4.5833310484886169e-01" purity="5.0000000000000000e-01" nType="0">
        <Node pos="l" depth="1" NCoef="0" IVar="4" Cut="1.4850815758109093e-02" cType="1" res="-2.2107402980327606e-01" rms="3.8371562957763672e-01" purity="1.9887450337409973e-01" nType="0">
          <Node pos="l" depth="2" NCoef="0" IVar="1" Cut="1.6135832214355469e+02" cType="1" res="-2.8221330046653748e-01" rms="3.1330007314682007e-01" purity="1.1371963471174240e-01" nType="0">
            <Node pos="l" depth="3" NCoef="0" IVar="-1" Cut="0.0000000000000000e+00" cType="1" res="-7.0634119212627411e-02" rms="2.2049777209758759e-01" purity="5.1821671426296234e-02" nType="-99"/>
            <Node pos="r" depth="3" NCoef="0" IVar="3" Cut="1.5837528705596924e+00" cType="1" res="-2.3133751749992371e-01" rms="3.7559121847152710e-01" purity="1.7389921844005585e-01" nType="0">
              <Node pos="l" depth="4" NCoef="0" IVar="-1" Cut="0.0000000000000000e+00" cType="1" res="-5.7736281305551529e-02" rms="3.2132071256637573e-01" purity="1.1806032806634903e-01" nType="-99"/>
              <Node pos="r" depth="4" NCoef="0" IVar="-1" Cut="0.0000000000000000e+00" cType="1" res="-3.2224204391241074e-02" rms="4.4233262538909912e-01" purity="2.6736101508140564e-01" nType="-99"/>
            </Node>
          </Node>
          <Node pos="r" depth="2" NCoef="0" IVar="3" Cut="1.6446406841278076e+00" cType="1" res="-5.9027764946222305e-02" rms="4.9107757210731506e-01" purity="4.2457276582717896e-01" nType="0">
            <Node pos="l" depth="3" NCoef="0" IVar="-1" Cut="0.0000000000000000e+00" cType="1" res="-3.0485849827528000e-02" rms="4.6518012881278992e-01" purity="3.2039180397987366e-01" nType="-99"/>
            <Node pos="r" depth="3" NCoef="0" IVar="-1" Cut="0.0000000000000000e+00" cType="1" res="6.6810972057282925e-03" rms="4.9867776036262512e-01" purity="5.2824610471725464e-01" nType="-99"/>
          </Node>
        </Node>
        <Node pos="r" depth="1" NCoef="0" IVar="4" Cut="2.3230829238891602e+00" cType="1" res="1.4875783026218414e-01" rms="4.4422894716262817e-01" purity="7.0277351140975952e-01" nType="0">
          <Node pos="l" depth="2" NCoef="0" IVar="1" Cut="3.2147619628906250e+02" cType="1" res="8.5145719349384308e-02" rms="4.7585859894752502e-01" purity="6.2167441844940186e-01" nType="0">
            <Node pos="l" depth="3" NCoef="0" IVar="-1" Cut="0.0000000000000000e+00" cType="1" res="-3.5791201516985893e-03" rms="4.9356666207313538e-01" purity="4.8959651589393616e-01" nType="-99"/>
            <Node pos="r" depth="3" NCoef="0" IVar="4" Cut="1.8634334802627563e+00" cType="1" res="1.3894467055797577e-01" rms="4.5720764994621277e-01" purity="6.9067090749740601e-01" nType="0">
              <Node pos="l" depth="4" NCoef="0" IVar="-1" Cut="0.0000000000000000e+00" cType="1" res="2.0798962563276291e-02" rms="4.7758835554122925e-01" purity="6.4177060127258301e-01" nType="-99"/>
              <Node pos="r" depth="4" NCoef="0" IVar="-1" Cut="0.0000000000000000e+00" cType="1" res="4.9418620765209198e-02" rms="3.7662458419799805e-01" purity="8.2816851139068604e-01" nType="-99"/>
            </Node>
          </Node>
          <Node pos="r" depth="2" NCoef="0" IVar="1" Cut="2.9776861572265625e+02" cType="1" res="2.3951530456542969e-01" rms="3.7657445669174194e-01" purity="8.1848025321960449e-01" nType="0">
            <Node pos="l" depth="3" NCoef="0" IVar="-1" Cut="0.0000000000000000e+00" cType="1" res="3.0234737321734428e-02" rms="4.5953667163848877e-01" purity="6.8553155660629272e-01" nType="-99"/>
            <Node pos="r" depth="3" NCoef="0" IVar="3" Cut="2.7806620597839355e+00" cType="1" res="2.8198242187500000e-01" rms="3.2143336534500122e-01" purity="8.8150101900100708e-01" nType="0">
              <Node pos="l" depth="4" NCoef="0" IVar="-1" Cut="0.0000000000000000e+00" cType="1" res="4.5317504554986954e-02" rms="3.8905116915702820e-01" purity="8.1165331602096558e-01" nType="-99"/>
              <Node pos="r" depth="4" NCoef="0" IVar="-1" Cut="0.0000000000000000e+00" cType="1" res="6.4929485321044922e-02" rms="2.8053909540176392e-01" purity="9.1341406106948853e-01" nType="-99"/>
            </Node>
          </Node>
        </Node>
      </Node>
    </BinaryTree>
    <BinaryTree type="DecisionTree" boostWeight="1.0000000000000000e+00" itree="4">
      <Node pos="s" depth="0" NCoef="0" IVar="4" Cut="3.6581787467002869e-01" cType="1" res="-1.0115678742295131e-04" rms="4.4871258735656738e-01" purity="5.0000000000000000e-01" nType="0">
        <Node pos="l" depth="1" NCoef="0" IVar="1" Cut="2.9113662719726562e+02" cType="1" res="-2.1847452223300934e-01" rms="3.5932978987693787e-01" purity="1.6870449483394623e-01" nType="0">
          <Node pos="l" depth="2" NCoef="0" IVar="1" Cut="1.5281712341308594e+02" cType="1" res="-2.5937017798423767e-01" rms="3.1234002113342285e-01" purity="1.1476060003042221e-01" nType="0">
            <Node pos="l" depth="3" NCoef="0" IVar="-1" Cut="0.0000000000000000e+00" cType="1" res="-6.7675195634365082e-02" rms="2.0392705500125885e-01" purity="4.4003691524267197e-02" nType="-99"/>
            <Node pos="r" depth="3" NCoef="0" IVar="3" Cut="9.0093004703521729e-01" cType="1" res="-2.1431727707386017e-01" rms="3.8009196519851685e-01" purity="1.7944152653217316e-01" nType="0">
              <Node pos="l" depth="4" NCoef="0" IVar="-1" Cut="0.0000000000000000e+00" cType="1" res="-5.5728774517774582e-02" rms="3.2474777102470398e-01" purity="1.1847662180662155e-01" nType="-99"/>
              <Node pos="r" depth="4" NCoef="0" IVar="-1" Cut="0.0000000000000000e+00" cType="1" res="-3.5734813660383224e-02" rms="4.1986539959907532e-01" purity="2.3507052659988403e-01" nType="-99"/>
            </Node>
          </Node>
          <Node pos="r" depth="2" NCoef="0" IVar="-1" Cut="0.0000000000000000e+00" cType="1" res="-1.4760574325919151e-02" rms="4.6348732709884644e-01" purity="3.6222815513610840e-01" nType="-99"/>
        </Node>
        <Node pos="r" depth="1" NCoef="0" IVar="1" Cut="2.5798068237304688e+02" cType="1" res="1.2233756482601166e-01" rms="4.4733649492263794e-01" purity="6.8575251102447510e-01" nType="0">
          <Node pos="l" depth="2" NCoef="0" IVar="-1" Cut="0.0000000000000000e+00" cType="1" res="-6.9507164880633354e-03" rms="4.9296218156814575e-01" purity="4.6359404921531677e-01" nType="-99"/>
          <Node pos="r" depth="2" NCoef="0" IVar="4" Cut="1.8350570201873779e+00" cType="1" res="1.5806162357330322e-01" rms="4.2832601070404053e-01" purity="7.3630201816558838e-01" nType="0">
            <Node pos="l" depth="3" NCoef="0" IVar="2" Cut="1.4715243530273438e+02" cType="1" res="7.0981062948703766e-02" rms="4.8485842347145081e-01" purity="6.0740762948989868e-01" nType="0">
              <Node pos="l" depth="4" NCoef="0" IVar="-1" Cut="0.0000000000000000e+00" cType="1" res="1.7908285371959209e-03" rms="4.9642241001129150e-01" purity="5.3845471143722534e-01" nType="-99"/>
              <Node pos="r" depth="4" NCoef="0" IVar="-1" Cut="0.0000000000000000e+00" cType="1" res="2.2011930122971535e-02" rms="4.7360399365425110e-01" purity="6.4974951744079590e-01" nType="-99"/>
            </Node>
            <Node pos="r" depth="3" NCoef="0" IVar="1" Cut="3.5942330932617188e+02" cType="1" res="2.3451384902000427e-01" rms="3.5445317625999451e-01" purity="8.4946465492248535e-01" nType="0">
              <Node pos="l" depth="4" NCoef="0" IVar="-1" Cut="0.0000000000000000e+00" cType="1" res="3.8568928837776184e-02" rms="4.1153648495674133e-01" purity="7.8185635805130005e-01" nType="-99"/>
              <Node pos="r" depth="4" NCoef="0" IVar="-1" Cut="0.0000000000000000e+00" cType="1" res="5.6834593415260315e-02" rms="3.0881550908088684e-01" purity="8.9238196611404419e-01" nType="-99"/>
            </Node>
          </Node>
        </Node>
      </Node>
    </BinaryTree>
    <BinaryTree type="DecisionTree" boostWeight="1.0000000000000000e+00" itree="5">
      <Node pos="s" depth="0" NCoef="0" IVar="4" Cut="6.0969644784927368e-01" cType="1" res="-1.2641177454497665e-04" rms="4.4074785709381104e-01" purity="5.0000000000000000e-01" nType="0">
        <Node pos="l" depth="1" NCoef="0" IVar="1" Cut="2.9113662719726562e+02" cType="1" res="-1.8058003485202789e-01" rms="3.7690302729606628e-01" purity="1.9887450337409973e-01" nType="0">
          <Node pos="l" depth="2" NCoef="0" IVar="1" Cut="1.8162648010253906e+02" cType="1" res="-2.3023498058319092e-01" rms="3.2084557414054871e-01" purity="1.2456800788640976e-01" nType="0">
            <Node pos="l" depth="3" NCoef="0" IVar="-1" Cut="0.0000000000000000e+00" cType="1" res="-6.0820396989583969e-02" rms="2.4141430854797363e-01" purity="6.3131697475910187e-02" nType="-99"/>
            <Node pos="r" depth="3" NCoef="0" IVar="3" Cut="9.0093004703521729e-01" cType="1" res="-1.7388452589511871e-01" rms="4.0376710891723633e-01" purity="2.1457283198833466e-01" nType="0">
              <Node pos="l" depth="4" NCoef="0" IVar="-1" Cut="0.0000000000000000e+00" cType="1" res="-4.9478415399789810e-02" rms="3.4558260440826416e-01" purity="1.4114727079868317e-01" nType="-99"/>
              <Node pos="r" depth="4" NCoef="0" IVar="-1" Cut="0.0000000000000000e+00" cType="1" res="-2.7484720572829247e-02" rms="4.3919086456298828e-01" purity="2.7181759476661682e-01" nType="-99"/>
            </Node>
          </Node>
          <Node pos="r" depth="2" NCoef="0" IVar="4" Cut="1.3350740075111389e-01" cType="1" res="-4.2457897216081619e-02" rms="4.7425809502601624e-01" purity="4.0556833148002625e-01" nType="0">
            <Node pos="l" depth="3" NCoef="0" IVar="-1" Cut="0.0000000000000000e+00" cType="1" res="-2.0843619480729103e-02" rms="4.4168099761009216e-01" purity="3.0600950121879578e-01" nType="-99"/>
            <Node pos="r" depth="3" NCoef="0" IVar="-1" Cut="0.0000000000000000e+00" cType="1" res="2.2173200268298388e-03" rms="4.9697402119636536e-01" purity="4.9891972541809082e-01" nType="-99"/>
          </Node>
        </Node>
        <Node pos="r" depth="1" NCoef="0" IVar="4" Cut="2.6442542076110840e+00" cType="1" res="1.2138842046260834e-01" rms="4.3899616599082947e-01" purity="7.0277351140975952e-01" nType="0">
          <Node pos="l" depth="2" NCoef="0" IVar="1" Cut="2.5798068237304688e+02" cType="1" res="7.9617306590080261e-02" rms="4.6419942378997803e-01" purity="6.4354401826858521e-01" nType="0">
            <Node pos="l" depth="3" NCoef="0" IVar="-1" Cut="0.0000000000000000e+00" cType="1" res="-1.6750913113355637e-02" rms="4.8922461271286011e-01" purity="4.0319779515266418e-01" nType="-99"/>
            <Node pos="r" depth="3" NCoef="0" IVar="4" Cut="1.8503702878952026e+00" cType="1" res="1.1466463655233383e-01" rms="4.5100906491279602e-01" purity="6.9515949487686157e-01" nType="0">
              <Node pos="l" depth="4" NCoef="0" IVar="-1" Cut="0.0000000000000000e+00" cType="1" res="1.3739664107561111e-02" rms="4.8307400941848755e-01" purity="6.1800992488861084e-01" nType="-99"/>
              <Node pos="r" depth="4" NCoef="0" IVar="-1" Cut="0.0000000000000000e+00" cType="1" res="4.1482388973236084e-02" rms="3.7909698486328125e-01" purity="8.2385182380676270e-01" nType="-99"/>
            </Node>
          </Node>
          <Node pos="r" depth="2" NCoef="0" IVar="5" Cut="-2.0436322689056396e-01" cType="1" res="2.2086040675640106e-01" rms="3.5278880596160889e-01" purity="8.4382021427154541e-01" nType="0">
            <Node pos="l" depth="3" NCoef="0" IVar="-1" Cut="0.0000000000000000e+00" cType="1" res="3.2829694449901581e-02" rms="4.0783289074897766e-01" purity="7.6981931924819946e-01" nType="-99"/>
            <Node pos="r" depth="3" NCoef="0" IVar="1" Cut="3.6065039062500000e+02" cType="1" res="2.4880002439022064e-01" rms="3.2322928309440613e-01" purity="8.7442356348037720e-01" nType="0">
              <Node pos="l" depth="4" NCoef="0" IVar="-1" Cut="0.0000000000000000e+00" cType="1" res="4.8205062747001648e-02" rms="3.7618681788444519e-01" purity="8.2189357280731201e-01" nType="-99"/>
              <Node pos="r" depth="4" NCoef="0" IVar="-1" Cut="0.0000000000000000e+00" cType="1" res="5.9977605938911438e-02" rms="2.5314679741859436e-01" purity="9.3068206310272217e-01" nType="-99"/>
            </Node>
          </Node>
        </Node>
      </Node>
    </BinaryTree>
    <BinaryTree type="DecisionTree" boostWeight="1.0000000000000000e+00" itree="6">
      <Node pos="s" depth="0" NCoef="0" IVar="4" Cut="6.0969644784927368e-01" cType="1" res="-1.5356579388026148e-04" rms="4.3382406234741211e-01" purity="5.0000000000000000e-01" nType="0">
        <Node pos="l" depth="1" NCoef="0" IVar="4" Cut="1.4850815758109093e-02" cType="1" res="-1.6282680630683899e-01" rms="3.7447175383567810e-01" purity="1.9887450337409973e-01" nType="0">
          <Node pos="l" depth="2" NCoef="0" IVar="3" Cut="-8.6585884094238281e+00" cType="1" res="-2.0959234237670898e-01" rms="3.1026598811149597e-01" purity="1.1371963471174240e-01" nType="0">
            <Node pos="l" depth="3" NCoef="0" IVar="-1" Cut="0.0000000000000000e+00" cType="1" res="-6.0778602957725525e-02" rms="1.9882637262344360e-01" purity="4.1397225111722946e-02" nType="-99"/>
            <Node pos="r" depth="3" NCoef="0" IVar="0" Cut="5.1613784790039062e+01" cType="1" res="-1.7415207624435425e-01" rms="3.7568089365959167e-01" purity="1.7442926764488220e-01" nType="0">
              <Node pos="l" depth="4" NCoef="0" IVar="-1" Cut="0.0000000000000000e+00" cType="1" res="-4.6676620841026306e-02" rms="3.3639067411422729e-01" purity="1.3446176052093506e-01" nType="-99"/>
              <Node pos="r" depth="4" NCoef="0" IVar="-1" Cut="0.0000000000000000e+00" cType="1" res="-3.2146003097295761e-02" rms="4.0138798952102661e-01" purity="2.0552456378936768e-01" nType="-99"/>
            </Node>
          </Node>
          <Node pos="r" depth="2" NCoef="0" IVar="3" Cut="1.6446406841278076e+00" cType="1" res="-3.8877312093973160e-02" rms="4.8537978529930115e-01" purity="4.2457276582717896e-01" nType="0">
            <Node pos="l" depth="3" NCoef="0" IVar="-1" Cut="0.0000000000000000e+00" cType="1" res="-2.3622279986739159e-02" rms="4.5977002382278442e-01" purity="3.2039180397987366e-01" nType="-99"/>
            <Node pos="r" depth="3" NCoef="0" IVar="-1" Cut="0.0000000000000000e+00" cType="1" res="7.5423144735395908e-03" rms="4.9794638156890869e-01" purity="5.2824610471725464e-01" nType="-99"/>
          </Node>
        </Node>
        <Node pos="r" depth="1" NCoef="0" IVar="1" Cut="2.5798068237304688e+02" cType="1" res="1.0938821732997894e-01" rms="4.3668016791343689e-01" purity="7.0277351140975952e-01" nType="0">
          <Node pos="l" depth="2" NCoef="0" IVar="-1" Cut="0.0000000000000000e+00" cType="1" res="-3.0844132415950298e-03" rms="4.9207934737205505e-01" purity="4.8366746306419373e-01" nType="-99"/>
          <Node pos="r" depth="2" NCoef="0" IVar="4" Cut="1.8940857648849487e+00" cType="1" res="1.3672474026679993e-01" rms="4.1863632202148438e-01" purity="7.5079160928726196e-01" nType="0">
            <Node pos="l" depth="3" NCoef="0" IVar="2" Cut="1.4715243530273438e+02" cType="1" res="6.4567156136035919e-02" rms="4.8103791475296021e-01" purity="6.2360548973083496e-01" nType="0">
              <Node pos="l" depth="4" NCoef="0" IVar="-1" Cut="0.0000000000000000e+00" cType="1" res="2.0938217639923096e-03" rms="4.9337148666381836e-01" purity="5.5388212203979492e-01" nType="-99"/>
              <Node pos="r" depth="4" NCoef="0" IVar="-1" Cut="0.0000000000000000e+00" cType="1" res="1.9976146519184113e-02" rms="4.7022089362144470e-01" purity="6.6641670465469360e-01" nType="-99"/>
            </Node>
            <Node pos="r" depth="3" NCoef="0" IVar="0" Cut="8.8442131042480469e+01" cType="1" res="1.9704531133174896e-01" rms="3.4689146280288696e-01" purity="8.5711359977722168e-01" nType="0">
              <Node pos="l" depth="4" NCoef="0" IVar="-1" Cut="0.0000000000000000e+00" cType="1" res="4.8372060060501099e-02" rms="3.2654067873954773e-01" purity="8.7656694650650024e-01" nType="-99"/>
              <Node pos="r" depth="4" NCoef="0" IVar="-1" Cut="0.0000000000000000e+00" cType="1" res="3.1474851071834564e-02" rms="3.9464932680130005e-01" purity="8.0082225799560547e-01" nType="-99"/>
            </Node>
          </Node>
        </Node>
      </Node>
    </BinaryTree>
    <BinaryTree type="DecisionTree" boostWeight="1.0000000000000000e+00" itree="7">
      <Node pos="s" depth="0" NCoef="0" IVar="4" Cut="6.0969644784927368e-01" cType="1" res="-1.7875494086183608e-04" rms="4.2815420031547546e-01" purity="5.0000000000000000e-01" nType="0">
        <Node pos="l" depth="1" NCoef="0" IVar="1" Cut="2.9113662719726562e+02" cType="1" res="-1.4684905111789703e-01" rms="3.7229293584823608e-01" purity="1.9887450337409973e-01" nType="0">
          <Node pos="l" depth="2" NCoef="0" IVar="1" Cut="1.8162648010253906e+02" cType="1" res="-1.8860192596912384e-01" rms="3.1916892528533936e-01" purity="1.2456800788640976e-01" nType="0">
            <Node pos="l" depth="3" NCoef="0" IVar="-1" Cut="0.0000000000000000e+00" cType="1" res="-5.4540954530239105e-02" rms="2.4122957885265350e-01" purity="6.3131697475910187e-02" nType="-99"/>
            <Node pos="r" depth="3" NCoef="0" IVar="2" Cut="1.7683967590332031e+02" cType="1" res="-1.4167715609073639e-01" rms="4.0268003940582275e-01" purity="2.1457283198833466e-01" nType="0">
              <Node pos="l" depth="4" NCoef="0" IVar="-1" Cut="0.0000000000000000e+00" cType="1" res="-2.1811496466398239e-02" rms="4.3996426463127136e-01" purity="2.7171251177787781e-01" nType="-99"/>
              <Node pos="r" depth="4" NCoef="0" IVar="-1" Cut="0.0000000000000000e+00" cType="1" res="-4.1703719645738602e-02" rms="3.5379460453987122e-01" purity="1.5401482582092285e-01" nType="-99"/>
            </Node>
          </Node>
          <Node pos="r" depth="2" NCoef="0" IVar="4" Cut="1.3350740075111389e-01" cType="1" res="-3.0707629397511482e-02" rms="4.7163817286491394e-01" purity="4.0556833148002625e-01" nType="0">
            <Node pos="l" depth="3" NCoef="0" IVar="-1" Cut="0.0000000000000000e+00" cType="1" res="-1.6429645940661430e-02" rms="4.3936496973037720e-01" purity="3.0600950121879578e-01" nType="-99"/>
            <Node pos="r" depth="3" NCoef="0" IVar="-1" Cut="0.0000000000000000e+00" cType="1" res="2.4686758406460285e-03" rms="4.9617695808410645e-01" purity="4.9891972541809082e-01" nType="-99"/>
          </Node>
        </Node>
        <Node pos="r" depth="1" NCoef="0" IVar="4" Cut="2.6442542076110840e+00" cType="1" res="9.8586879670619965e-02" rms="4.3495419621467590e-01" purity="7.0277351140975952e-01" nType="0">
          <Node pos="l" depth="2" NCoef="0" IVar="1" Cut="2.5798068237304688e+02" cType="1" res="6.2831304967403412e-02" rms="4.6089807152748108e-01" purity="6.4354401826858521e-01" nType="0">
            <Node pos="l" depth="3" NCoef="0" IVar="-1" Cut="0.0000000000000000e+00" cType="1" res="-1.4789965935051441e-02" rms="4.8922502994537354e-01" purity="4.0319779515266418e-01" nType="-99"/>
            <Node pos="r" depth="3" NCoef="0" IVar="0" Cut="1.0126092529296875e+02" cType="1" res="9.2149727046489716e-02" rms="4.4920483231544495e-01" purity="6.9515949487686157e-01" nType="0">
              <Node pos="l" depth="4" NCoef="0" IVar="-1" Cut="0.0000000000000000e+00" cType="1" res="2.4221295490860939e-02" rms="4.3882480263710022e-01" purity="7.1789330244064331e-01" nType="-99"/>
              <Node pos="r" depth="4" NCoef="0" IVar="-1" Cut="0.0000000000000000e+00" cType="1" res="-4.4301003217697144e-03" rms="4.8316618800163269e-01" purity="5.7928711175918579e-01" nType="-99"/>
            </Node>
          </Node>
          <Node pos="r" depth="2" NCoef="0" IVar="5" Cut="-2.0436322689056396e-01" cType="1" res="1.8373370170593262e-01" rms="3.5148745775222778e-01" purity="8.4382021427154541e-01" nType="0">
            <Node pos="l" depth="3" NCoef="0" IVar="-1" Cut="0.0000000000000000e+00" cType="1" res="2.7453768998384476e-02" rms="4.0661686658859253e-01" purity="7.6981931924819946e-01" nType="-99"/>
            <Node pos="r" depth="3" NCoef="0" IVar="5" Cut="9.4690829515457153e-01" cType="1" res="2.0868232846260071e-01" rms="3.2269471883773804e-01" purity="8.7442356348037720e-01" nType="0">
              <Node pos="l" depth="4" NCoef="0" IVar="-1" Cut="0.0000000000000000e+00" cType="1" res="5.1269564777612686e-02" rms="3.0664300918579102e-01" purity="8.9086264371871948e-01" nType="-99"/>
              <Node pos="r" depth="4" NCoef="0" IVar="-1" Cut="0.0000000000000000e+00" cType="1" res="4.2557019740343094e-02" rms="3.4241178631782532e-01" purity="8.5173457860946655e-01" nType="-99"/>
            </Node>
          </Node>
        </Node>
      </Node>
    </BinaryTree>
    <BinaryTree type="DecisionTree" boostWeight="1.0000000000000000e+00" itree="8">
      <Node pos="s" depth="0" NCoef="0" IVar="4" Cut="9.7551429271697998e-01" cType="1" res="-2.0961067639291286e-04" rms="4.2337676882743835e-01" purity="5.0000000000000000e-01" nType="0">
        <Node pos="l" depth="1" NCoef="0" IVar="4" Cut="2.3792693391442299e-02" cType="1" res="-1.1599706858396530e-01" rms="3.9350485801696777e-01" purity="2.4622029066085815e-01" nType="0">
          <Node pos="l" depth="2" NCoef="0" IVar="3" Cut="1.5837528705596924e+00" cType="1" res="-1.7099037766456604e-01" rms="3.1004276871681213e-01" purity="1.1468867212533951e-01" nType="0">
            <Node pos="l" depth="3" NCoef="0" IVar="0" Cut="3.8760063171386719e+01" cType="1" res="-1.9159246981143951e-01" rms="2.6393038034439087e-01" purity="7.7420420944690704e-02" nType="0">
              <Node pos="l" depth="4" NCoef="0" IVar="-1" Cut="0.0000000000000000e+00" cType="1" res="-5.7848982512950897e-02" rms="1.9131067395210266e-01" purity="3.8992203772068024e-02" nType="-99"/>
              <Node pos="r" depth="4" NCoef="0" IVar="-1" Cut="0.0000000000000000e+00" cType="1" res="-4.2438268661499023e-02" rms="3.0547353625297546e-01" purity="1.0639021545648575e-01" nType="-99"/>
            </Node>
            <Node pos="r" depth="3" NCoef="0" IVar="-1" Cut="0.0000000000000000e+00" cType="1" res="-2.4699598550796509e-02" rms="4.1213676333427429e-01" purity="2.2557665407657623e-01" nType="-99"/>
          </Node>
          <Node pos="r" depth="2" NCoef="0" IVar="3" Cut="1.1656645536422729e+00" cType="1" res="-2.5397880002856255e-02" rms="4.8825562000274658e-01" purity="4.6291318535804749e-01" nType="0">
            <Node pos="l" depth="3" NCoef="0" IVar="-1" Cut="0.0000000000000000e+00" cType="1" res="-2.2132571786642075e-02" rms="4.5880755782127380e-01" purity="3.4423172473907471e-01" nType="-99"/>
            <Node pos="r" depth="3" NCoef="0" IVar="4" Cut="4.8812294006347656e-01" cType="1" res="1.9622890278697014e-02" rms="4.9795857071876526e-01" purity="5.2798998355865479e-01" nType="0">
              <Node pos="l" depth="4" NCoef="0" IVar="-1" Cut="0.0000000000000000e+00" cType="1" res="1.1462914757430553e-02" rms="4.9911475181579590e-01" purity="5.3286480903625488e-01" nType="-99"/>
              <Node pos="r" depth="4" NCoef="0" IVar="-1" Cut="0.0000000000000000e+00" cType="1" res="-2.2303997538983822e-03" rms="4.9490633606910706e-01" purity="5.2398568391799927e-01" nType="-99"/>
            </Node>
          </Node>
        </Node>
        <Node pos="r" depth="1" NCoef="0" IVar="1" Cut="2.5798068237304688e+02" cType="1" res="1.0320032387971878e-01" rms="4.2234343290328979e-01" purity="7.2665095329284668e-01" nType="0">
          <Node pos="l" depth="2" NCoef="0" IVar="-1" Cut="0.0000000000000000e+00" cType="1" res="-2.6422848459333181e-03" rms="4.8907127976417542e-01" purity="4.8934513330459595e-01" nType="-99"/>
          <Node pos="r" depth="2" NCoef="0" IVar="3" Cut="1.8601797819137573e+00" cType="1" res="1.2950068712234497e-01" rms="4.0108579397201538e-01" purity="7.8031837940216064e-01" nType="0">
            <Node pos="l" depth="3" NCoef="0" IVar="-1" Cut="0.0000000000000000e+00" cType="1" res="5.3754015825688839e-03" rms="4.8564800620079041e-01" purity="6.0376518964767456e-01" nType="-99"/>
            <Node pos="r" depth="3" NCoef="0" IVar="0" Cut="8.8442131042480469e+01" cType="1" res="1.5301127731800079e-01" rms="3.7526774406433105e-01" purity="8.2049131393432617e-01" nType="0">
              <Node pos="l" depth="4" NCoef="0" IVar="-1" Cut="0.0000000000000000e+00" cType="1" res="3.9325702935457230e-02" rms="3.5745757818222046e-01" purity="8.4188044071197510e-01" nType="-99"/>
              <Node pos="r" depth="4" NCoef="0" IVar="-1" Cut="0.0000000000000000e+00" cType="1" res="2.2505108267068863e-02" rms="4.1739565134048462e-01" purity="7.5950127840042114e-01" nType="-99"/>
            </Node>
          </Node>
        </Node>
      </Node>
    </BinaryTree>
    <BinaryTree type="DecisionTree" boostWeight="1.0000000000000000e+00" itree="9">
      <Node pos="s" depth="0" NCoef="0" IVar="4" Cut="9.7551429271697998e-01" cType="1" res="-2.2909528343006968e-04" rms="4.1928389668464661e-01" purity="5.0000000000000000e-01" nType="0">
        <Node pos="l" depth="1" NCoef="0" IVar="4" Cut="2.3792693391442299e-02" cType="1" res="-1.0462401062250137e-01" rms="3.9169800281524658e-01" purity="2.4622029066085815e-01" nType="0">
          <Node pos="l" depth="2" NCoef="0" IVar="3" Cut="5.5951869487762451e-01" cType="1" res="-1.5424993634223938e-01" rms="3.0956837534904480e-01" purity="1.1468867212533951e-01" nType="0">
            <Node pos="l" depth="3" NCoef="0" IVar="0" Cut="5.1064823150634766e+01" cType="1" res="-1.8329748511314392e-01" rms="2.2833319008350372e-01" purity="5.6162763386964798e-02" nType="0">
              <Node pos="l" depth="4" NCoef="0" IVar="-1" Cut="0.0000000000000000e+00" cType="1" res="-5.6906931102275848e-02" rms="1.6989880800247192e-01" purity="2.9862560331821442e-02" nType="-99"/>
              <Node pos="r" depth="4" NCoef="0" IVar="-1" Cut="0.0000000000000000e+00" cType="1" res="-4.3152641505002975e-02" rms="2.8058952093124390e-01" purity="8.7319917976856232e-02" nType="-99"/>
            </Node>
            <Node pos="r" depth="3" NCoef="0" IVar="2" Cut="1.6133039855957031e+02" cType="1" res="-1.1656572669744492e-01" rms="3.8730677962303162e-01" purity="1.9061593711376190e-01" nType="0">
              <Node pos="l" depth="4" NCoef="0" IVar="-1" Cut="0.0000000000000000e+00" cType="1" res="-2.1048145368695259e-02" rms="3.9683702588081360e-01" purity="2.0670850574970245e-01" nType="-99"/>
              <Node pos="r" depth="4" NCoef="0" IVar="-1" Cut="0.0000000000000000e+00" cType="1" res="-3.2489534467458725e-02" rms="3.7781614065170288e-01" purity="1.7772480845451355e-01" nType="-99"/>
            </Node>
          </Node>
          <Node pos="r" depth="2" NCoef="0" IVar="3" Cut="1.1656645536422729e+00" cType="1" res="-2.2867368534207344e-02" rms="4.8741242289543152e-01" purity="4.6291318535804749e-01" nType="0">
            <Node pos="l" depth="3" NCoef="0" IVar="-1" Cut="0.0000000000000000e+00" cType="1" res="-2.0016601309180260e-02" rms="4.5886510610580444e-01" purity="3.4423172473907471e-01" nType="-99"/>
            <Node pos="r" depth="3" NCoef="0" IVar="4" Cut="4.8812294006347656e-01" cType="1" res="1.7659395933151245e-02" rms="4.9774047732353210e-01" purity="5.2798998355865479e-01" nType="0">
              <Node pos="l" depth="4" NCoef="0" IVar="-1" Cut="0.0000000000000000e+00" cType="1" res="1.0306104086339474e-02" rms="4.9911668896675110e-01" purity="5.3286480903625488e-01" nType="-99"/>
              <Node pos="r" depth="4" NCoef="0" IVar="-1" Cut="0.0000000000000000e+00" cType="1" res="-2.0067121367901564e-03" rms="4.9490523338317871e-01" purity="5.2398568391799927e-01" nType="-99"/>
            </Node>
          </Node>
        </Node>
        <Node pos="r" depth="1" NCoef="0" IVar="1" Cut="2.5798068237304688e+02" cType="1" res="9.3006148934364319e-02" rms="4.2113304138183594e-01" purity="7.2665095329284668e-01" nType="0">
          <Node pos="l" depth="2" NCoef="0" IVar="-1" Cut="0.0000000000000000e+00" cType="1" res="-2.3780148476362228e-03" rms="4.8906993865966797e-01" purity="4.8934513330459595e-01" nType="-99"/>
          <Node pos="r" depth="2" NCoef="0" IVar="3" Cut="1.8601797819137573e+00" cType="1" res="1.1670492589473724e-01" rms="4.0040421485900879e-01" purity="7.8031837940216064e-01" nType="0">
            <Node pos="l" depth="3" NCoef="0" IVar="-1" Cut="0.0000000000000000e+00" cType="1" res="4.8464937135577202e-03" rms="4.8565214872360229e-01" purity="6.0376518964767456e-01" nType="-99"/>
            <Node pos="r" depth="3" NCoef="0" IVar="4" Cut="1.5641269683837891e+00" cType="1" res="1.3789907097816467e-01" rms="3.7511739134788513e-01" purity="8.2049131393432617e-01" nType="0">
              <Node pos="l" depth="4" NCoef="0" IVar="-1" Cut="0.0000000000000000e+00" cType="1" res="1.3601468876004219e-02" rms="4.7131851315498352e-01" purity="6.6169059276580811e-01" nType="-99"/>
              <Node pos="r" depth="4" NCoef="0" IVar="-1" Cut="0.0000000000000000e+00" cType="1" res="3.6040853708982468e-02" rms="3.5366535186767578e-01" purity="8.4882432222366333e-01" nType="-99"/>
            </Node>
          </Node>
        </Node>
      </Node>
    </BinaryTree>
    <BinaryTree type="DecisionTree" boostWeight="1.0000000000000000e+00" itree="10">
      <Node pos="s" depth="0" NCoef="0" IVar="1" Cut="2.1237950134277344e+02" cType="1" res="-2.4054928508121520e-04" rms="4.1590568423271179e-01" purity="5.0000000000000000e-01" nType="0">
        <Node pos="l" depth="1" NCoef="0" IVar="1" Cut="1.8161291503906250e+02" cType="1" res="-1.5457658469676971e-01" rms="3.1491273641586304e-01" purity="1.2860652804374695e-01" nType="0">
          <Node pos="l" depth="2" NCoef="0" IVar="0" Cut="4.7465724945068359e+01" cType="1" res="-1.8509933352470398e-01" rms="2.5637084245681763e-01" purity="6.9274462759494781e-02" nType="0">
            <Node pos="l" depth="3" NCoef="0" IVar="-1" Cut="0.0000000000000000e+00" cType="1" res="-5.9019885957241058e-02" rms="1.9218383729457855e-01" purity="3.5659771412611008e-02" nType="-99"/>
            <Node pos="r" depth="3" NCoef="0" IVar="-1" Cut="0.0000000000000000e+00" cType="1" res="-4.1412301361560822e-02" rms="3.1113570928573608e-01" purity="1.0756621509790421e-01" nType="-99"/>
          </Node>
          <Node pos="r" depth="2" NCoef="0" IVar="-1" Cut="0.0000000000000000e+00" cType="1" res="-1.3072776608169079e-02" rms="4.3900170922279358e-01" purity="3.1635501980781555e-01" nType="-99"/>
        </Node>
        <Node pos="r" depth="1" NCoef="0" IVar="4" Cut="1.4625027179718018e+00" cType="1" res="5.2939623594284058e-02" rms="4.3286710977554321e-01" purity="6.2797248363494873e-01" nType="0">
          <Node pos="l" depth="2" NCoef="0" IVar="3" Cut="9.0243399143218994e-01" cType="1" res="-2.4676369503140450e-02" rms="4.6474331617355347e-01" purity="4.3875169754028320e-01" nType="0">
            <Node pos="l" depth="3" NCoef="0" IVar="-1" Cut="0.0000000000000000e+00" cType="1" res="-3.0439054593443871e-02" rms="3.8944950699806213e-01" purity="2.1752369403839111e-01" nType="-99"/>
            <Node pos="r" depth="3" NCoef="0" IVar="1" Cut="2.8731430053710938e+02" cType="1" res="6.5962844528257847e-03" rms="4.7975227236747742e-01" purity="5.0254321098327637e-01" nType="0">
              <Node pos="l" depth="4" NCoef="0" IVar="-1" Cut="0.0000000000000000e+00" cType="1" res="-1.4855445362627506e-02" rms="4.6257096529006958e-01" purity="3.4580582380294800e-01" nType="-99"/>
              <Node pos="r" depth="4" NCoef="0" IVar="-1" Cut="0.0000000000000000e+00" cType="1" res="7.4777398258447647e-03" rms="4.8311099410057068e-01" purity="5.6406426429748535e-01" nType="-99"/>
            </Node>
          </Node>
          <Node pos="r" depth="2" NCoef="0" IVar="3" Cut="2.1528937816619873e+00" cType="1" res="1.2079824507236481e-01" rms="3.9049556851387024e-01" purity="7.9340571165084839e-01" nType="0">
            <Node pos="l" depth="3" NCoef="0" IVar="-1" Cut="0.0000000000000000e+00" cType="1" res="1.2649913318455219e-02" rms="4.6261945366859436e-01" purity="6.6572177410125732e-01" nType="-99"/>
            <Node pos="r" depth="3" NCoef="0" IVar="0" Cut="8.8442131042480469e+01" cType="1" res="1.3784892857074738e-01" rms="3.6638581752777100e-01" purity="8.2847362756729126e-01" nType="0">
              <Node pos="l" depth="4" NCoef="0" IVar="-1" Cut="0.0000000000000000e+00" cType="1" res="3.8264535367488861e-02" rms="3.4677532315254211e-01" purity="8.5247361660003662e-01" nType="-99"/>
              <Node pos="r" depth="4" NCoef="0" IVar="-1" Cut="0.0000000000000000e+00" cType="1" res="1.8531631678342819e-02" rms="4.1207239031791687e-01" purity="7.5939905643463135e-01" nType="-99"/>
            </Node>
          </Node>
        </Node>
      </Node>
    </BinaryTree>
    <BinaryTree type="DecisionTree" boostWeight="1.0000000000000000e+00" itree="11">
      <Node pos="s" depth="0" NCoef="0" IVar="1" Cut="2.1237950134277344e+02" cType="1" res="-2.5817542336881161e-04" rms="4.1234979033470154e-01" purity="5.0000000000000000e-01" nType="0">
        <Node pos="l" depth="1" NCoef="0" IVar="1" Cut="1.8161291503906250e+02" cType="1" res="-1.3947193324565887e-01" rms="3.1356075406074524e-01" purity="1.2860652804374695e-01" nType="0">
          <Node pos="l" depth="2" NCoef="0" IVar="0" Cut="4.7465724945068359e+01" cType="1" res="-1.6704843938350677e-01" rms="2.5554397702217102e-01" purity="6.9274462759494781e-02" nType="0">
            <Node pos="l" depth="3" NCoef="0" IVar="-1" Cut="0.0000000000000000e+00" cType="1" res="-5.6521899998188019e-02" rms="1.9118638336658478e-01" purity="3.5659771412611008e-02" nType="-99"/>
            <Node pos="r" depth="3" NCoef="0" IVar="-1" Cut="0.0000000000000000e+00" cType="1" res="-3.8828954100608826e-02" rms="3.1087785959243774e-01" purity="1.0756621509790421e-01" nType="-99"/>
          </Node>
          <Node pos="r" depth="2" NCoef="0" IVar="-1" Cut="0.0000000000000000e+00" cType="1" res="-1.1841114610433578e-02" rms="4.3906626105308533e-01" purity="3.1635501980781555e-01" nType="-99"/>
        </Node>
        <Node pos="r" depth="1" NCoef="0" IVar="4" Cut="1.4625027179718018e+00" cType="1" res="4.7711253166198730e-02" rms="4.3100276589393616e-01" purity="6.2797248363494873e-01" nType="0">
          <Node pos="l" depth="2" NCoef="0" IVar="3" Cut="9.0243399143218994e-01" cType="1" res="-2.2237276658415794e-02" rms="4.6373456716537476e-01" purity="4.3875169754028320e-01" nType="0">
            <Node pos="l" depth="3" NCoef="0" IVar="-1" Cut="0.0000000000000000e+00" cType="1" res="-2.7911411598324776e-02" rms="3.8961502909660339e-01" purity="2.1752369403839111e-01" nType="-99"/>
            <Node pos="r" depth="3" NCoef="0" IVar="1" Cut="2.8731430053710938e+02" cType="1" res="5.9331911616027355e-03" rms="4.7931441664695740e-01" purity="5.0254321098327637e-01" nType="0">
              <Node pos="l" depth="4" NCoef="0" IVar="-1" Cut="0.0000000000000000e+00" cType="1" res="-1.3438400812447071e-02" rms="4.6260318160057068e-01" purity="3.4580582380294800e-01" nType="-99"/>
              <Node pos="r" depth="4" NCoef="0" IVar="-1" Cut="0.0000000000000000e+00" cType="1" res="6.7365327849984169e-03" rms="4.8310637474060059e-01" purity="5.6406426429748535e-01" nType="-99"/>
            </Node>
          </Node>
          <Node pos="r" depth="2" NCoef="0" IVar="5" Cut="1.5240752696990967e+00" cType="1" res="1.0886631160974503e-01" rms="3.9005261659622192e-01" purity="7.9340571165084839e-01" nType="0">
            <Node pos="l" depth="3" NCoef="0" IVar="0" Cut="8.8442131042480469e+01" cType="1" res="1.2106180191040039e-01" rms="3.8266977667808533e-01" purity="8.0611521005630493e-01" nType="0">
              <Node pos="l" depth="4" NCoef="0" IVar="-1" Cut="0.0000000000000000e+00" cType="1" res="3.3706821501255035e-02" rms="3.6530277132987976e-01" purity="8.2958090305328369e-01" nType="-99"/>
              <Node pos="r" depth="4" NCoef="0" IVar="-1" Cut="0.0000000000000000e+00" cType="1" res="1.5857789665460587e-02" rms="4.2436993122100830e-01" purity="7.3853802680969238e-01" nType="-99"/>
            </Node>
            <Node pos="r" depth="3" NCoef="0" IVar="-1" Cut="0.0000000000000000e+00" cType="1" res="7.0164222270250320e-03" rms="4.2660355567932129e-01" purity="7.1072971820831299e-01" nType="-99"/>
          </Node>
        </Node>
      </Node>
    </BinaryTree>
    <BinaryTree type="DecisionTree" boostWeight="1.0000000000000000e+00" itree="12">
      <Node pos="s" depth="0" NCoef="0" IVar="1" Cut="2.1237950134277344e+02" cType="1" res="-2.7674491866491735e-04" rms="4.0941968560218811e-01" purity="5.0000000000000000e-01" nType="0">
        <Node pos="l" depth="1" NCoef="0" IVar="1" Cut="1.7777207946777344e+02" cType="1" res="-1.2584891915321350e-01" rms="3.1240445375442505e-01" purity="1.2860652804374695e-01" nType="0">
          <Node pos="l" depth="2" NCoef="0" IVar="-1" Cut="0.0000000000000000e+00" cType="1" res="-4.6326193958520889e-02" rms="2.4941165745258331e-01" purity="6.5331168472766876e-02" nType="-99"/>
          <Node pos="r" depth="2" NCoef="0" IVar="-1" Cut="0.0000000000000000e+00" cType="1" res="-1.1904108338057995e-02" rms="4.3401372432708740e-01" purity="3.0429792404174805e-01" nType="-99"/>
        </Node>
        <Node pos="r" depth="1" NCoef="0" IVar="4" Cut="1.4625027179718018e+00" cType="1" res="4.2992152273654938e-02" rms="4.2947492003440857e-01" purity="6.2797248363494873e-01" nType="0">
          <Node pos="l" depth="2" NCoef="0" IVar="4" Cut="3.5670395940542221e-02" cType="1" res="-2.0039010792970657e-02" rms="4.6292307972908020e-01" purity="4.3875169754028320e-01" nType="0">
            <Node pos="l" depth="3" NCoef="0" IVar="-1" Cut="0.0000000000000000e+00" cType="1" res="-2.4492790922522545e-02" rms="3.8189998269081116e-01" purity="1.8959860503673553e-01" nType="-99"/>
            <Node pos="r" depth="3" NCoef="0" IVar="1" Cut="3.6222909545898438e+02" cType="1" res="8.5890805348753929e-03" rms="4.8571234941482544e-01" purity="5.2868938446044922e-01" nType="0">
              <Node pos="l" depth="4" NCoef="0" IVar="-1" Cut="0.0000000000000000e+00" cType="1" res="-7.2631882503628731e-03" rms="4.8217171430587769e-01" purity="4.4575116038322449e-01" nType="-99"/>
              <Node pos="r" depth="4" NCoef="0" IVar="-1" Cut="0.0000000000000000e+00" cType="1" res="8.7532429024577141e-03" rms="4.8572567105293274e-01" purity="5.9323221445083618e-01" nType="-99"/>
            </Node>
          </Node>
          <Node pos="r" depth="2" NCoef="0" IVar="3" Cut="2.6704242229461670e+00" cType="1" res="9.8099447786808014e-02" rms="3.8966882228851318e-01" purity="7.9340571165084839e-01" nType="0">
            <Node pos="l" depth="3" NCoef="0" IVar="5" Cut="9.1461199522018433e-01" cType="1" res="6.5309286117553711e-02" rms="4.3085369467735291e-01" purity="7.2983163595199585e-01" nType="0">
              <Node pos="l" depth="4" NCoef="0" IVar="-1" Cut="0.0000000000000000e+00" cType="1" res="2.0827822387218475e-02" rms="4.1689771413803101e-01" purity="7.5524467229843140e-01" nType="-99"/>
              <Node pos="r" depth="4" NCoef="0" IVar="-1" Cut="0.0000000000000000e+00" cType="1" res="2.2981860092841089e-04" rms="4.5952296257019043e-01" purity="6.6275197267532349e-01" nType="-99"/>
            </Node>
            <Node pos="r" depth="3" NCoef="0" IVar="5" Cut="-4.1599518060684204e-01" cType="1" res="1.2796719372272491e-01" rms="3.4523761272430420e-01" purity="8.5131376981735229e-01" nType="0">
              <Node pos="l" depth="4" NCoef="0" IVar="-1" Cut="0.0000000000000000e+00" cType="1" res="1.6400117427110672e-02" rms="4.0620467066764832e-01" purity="7.7831733226776123e-01" nType="-99"/>
              <Node pos="r" depth="4" NCoef="0" IVar="-1" Cut="0.0000000000000000e+00" cType="1" res="3.8219098001718521e-02" rms="3.2016471028327942e-01" purity="8.7521517276763916e-01" nType="-99"/>
            </Node>
          </Node>
        </Node>
      </Node>
    </BinaryTree>
    <BinaryTree type="DecisionTree" boostWeight="1.0000000000000000e+00" itree="13">
      <Node pos="s" depth="0" NCoef="0" IVar="1" Cut="2.1237950134277344e+02" cType="1" res="-2.8094410663470626e-04" rms="4.0697091817855835e-01" purity="5.0000000000000000e-01" nType="0">
        <Node pos="l" depth="1" NCoef="0" IVar="1" Cut="1.8161291503906250e+02" cType="1" res="-1.1354731768369675e-01" rms="3.1156915426254272e-01" purity="1.2860652804374695e-01" nType="0">
          <Node pos="l" depth="2" NCoef="0" IVar="0" Cut="4.7465724945068359e+01" cType="1" res="-1.3622070848941803e-01" rms="2.5427263975143433e-01" purity="6.9274462759494781e-02" nType="0">
            <Node pos="l" depth="3" NCoef="0" IVar="-1" Cut="0.0000000000000000e+00" cType="1" res="-5.2455436438322067e-02" rms="1.8946231901645660e-01" purity="3.5659771412611008e-02" nType="-99"/>
            <Node pos="r" depth="3" NCoef="0" IVar="-1" Cut="0.0000000000000000e+00" cType="1" res="-3.3566288650035858e-02" rms="3.1016761064529419e-01" purity="1.0756621509790421e-01" nType="-99"/>
          </Node>
          <Node pos="r" depth="2" NCoef="0" IVar="-1" Cut="0.0000000000000000e+00" cType="1" res="-9.5921093598008156e-03" rms="4.3919488787651062e-01" purity="3.1635501980781555e-01" nType="-99"/>
        </Node>
        <Node pos="r" depth="1" NCoef="0" IVar="4" Cut="1.4625027179718018e+00" cType="1" res="3.8747694343328476e-02" rms="4.2813780903816223e-01" purity="6.2797248363494873e-01" nType="0">
          <Node pos="l" depth="2" NCoef="0" IVar="3" Cut="9.0243399143218994e-01" cType="1" res="-1.8060686066746712e-02" rms="4.6226978302001953e-01" purity="4.3875169754028320e-01" nType="0">
            <Node pos="l" depth="3" NCoef="0" IVar="-1" Cut="0.0000000000000000e+00" cType="1" res="-2.4730760604143143e-02" rms="3.8922834396362305e-01" purity="2.1752369403839111e-01" nType="-99"/>
            <Node pos="r" depth="3" NCoef="0" IVar="2" Cut="1.8427018737792969e+02" cType="1" res="6.4935712143778801e-03" rms="4.7846996784210205e-01" purity="5.0254321098327637e-01" nType="0">
              <Node pos="l" depth="4" NCoef="0" IVar="-1" Cut="0.0000000000000000e+00" cType="1" res="9.1869868338108063e-03" rms="4.8979812860488892e-01" purity="5.5689978599548340e-01" nType="-99"/>
              <Node pos="r" depth="4" NCoef="0" IVar="-1" Cut="0.0000000000000000e+00" cType="1" res="-7.3693995364010334e-03" rms="4.6250927448272705e-01" purity="4.4405537843704224e-01" nType="-99"/>
            </Node>
          </Node>
          <Node pos="r" depth="2" NCoef="0" IVar="3" Cut="1.9803836345672607e+00" cType="1" res="8.8414497673511505e-02" rms="3.8915669918060303e-01" purity="7.9340571165084839e-01" nType="0">
            <Node pos="l" depth="3" NCoef="0" IVar="-1" Cut="0.0000000000000000e+00" cType="1" res="4.8242085613310337e-03" rms="4.7410130500793457e-01" purity="6.3568371534347534e-01" nType="-99"/>
            <Node pos="r" depth="3" NCoef="0" IVar="1" Cut="4.4426135253906250e+02" cType="1" res="1.0054067522287369e-01" rms="3.7015715241432190e-01" purity="8.2239884138107300e-01" nType="0">
              <Node pos="l" depth="4" NCoef="0" IVar="-1" Cut="0.0000000000000000e+00" cType="1" res="1.9881380721926689e-02" rms="3.9649063348770142e-01" purity="7.8742140531539917e-01" nType="-99"/>
              <Node pos="r" depth="4" NCoef="0" IVar="-1" Cut="0.0000000000000000e+00" cType="1" res="3.8249172270298004e-02" rms="3.0706605315208435e-01" purity="8.9195972681045532e-01" nType="-99"/>
            </Node>
          </Node>
        </Node>
      </Node>
    </BinaryTree>
    <BinaryTree type="DecisionTree" boostWeight="1.0000000000000000e+00" itree="14">
      <Node pos="s" depth="0" NCoef="0" IVar="2" Cut="1.1003468322753906e+02" cType="1" res="-2.8375571127980947e-04" rms="4.0493106842041016e-01" purity="5.0000000000000000e-01" nType="0">
        <Node pos="l" depth="1" NCoef="0" IVar="-1" Cut="0.0000000000000000e+00" cType="1" res="-4.0276821702718735e-02" rms="3.4378311038017273e-01" purity="2.2759364545345306e-01" nType="-99"/>
        <Node pos="r" depth="1" NCoef="0" IVar="4" Cut="2.4387857317924500e-01" cType="1" res="2.3921243846416473e-02" rms="4.0857216715812683e-01" purity="5.4312849044799805e-01" nType="0">
          <Node pos="l" depth="2" NCoef="0" IVar="2" Cut="1.7970816040039062e+02" cType="1" res="-6.9020763039588928e-02" rms="3.5824117064476013e-01" purity="1.7953735589981079e-01" nType="0">
            <Node pos="l" depth="3" NCoef="0" IVar="3" Cut="2.1810729801654816e-01" cType="1" res="-3.6542702466249466e-02" rms="3.6418449878692627e-01" purity="1.9544522464275360e-01" nType="0">
              <Node pos="l" depth="4" NCoef="0" IVar="-1" Cut="0.0000000000000000e+00" cType="1" res="-3.5032596439123154e-02" rms="2.4812854826450348e-01" purity="6.7913517355918884e-02" nType="-99"/>
              <Node pos="r" depth="4" NCoef="0" IVar="-1" Cut="0.0000000000000000e+00" cType="1" res="2.1113429684191942e-03" rms="4.2705297470092773e-01" purity="2.9300969839096069e-01" nType="-99"/>
            </Node>
            <Node pos="r" depth="3" NCoef="0" IVar="3" Cut="1.2418072223663330e+00" cType="1" res="-1.0945687443017960e-01" rms="3.4647178649902344e-01" purity="1.5973156690597534e-01" nType="0">
              <Node pos="l" depth="4" NCoef="0" IVar="-1" Cut="0.0000000000000000e+00" cType="1" res="-3.7897191941738129e-02" rms="2.8589382767677307e-01" purity="9.3408122658729553e-02" nType="-99"/>
              <Node pos="r" depth="4" NCoef="0" IVar="-1" Cut="0.0000000000000000e+00" cType="1" res="-1.9975263625383377e-02" rms="4.1172707080841064e-01" purity="2.4708265066146851e-01" nType="-99"/>
            </Node>
          </Node>
          <Node pos="r" depth="2" NCoef="0" IVar="4" Cut="2.6798684597015381e+00" cType="1" res="6.7056663334369659e-02" rms="4.2305266857147217e-01" purity="7.1187520027160645e-01" nType="0">
            <Node pos="l" depth="3" NCoef="0" IVar="1" Cut="3.9276544189453125e+02" cType="1" res="4.7792602330446243e-02" rms="4.5017248392105103e-01" purity="6.5722894668579102e-01" nType="0">
              <Node pos="l" depth="4" NCoef="0" IVar="-1" Cut="0.0000000000000000e+00" cType="1" res="2.7308731805533171e-03" rms="4.7061896324157715e-01" purity="5.8271384239196777e-01" nType="-99"/>
              <Node pos="r" depth="4" NCoef="0" IVar="-1" Cut="0.0000000000000000e+00" cType="1" res="1.9352480769157410e-02" rms="4.2474472522735596e-01" purity="7.3485487699508667e-01" nType="-99"/>
            </Node>
            <Node pos="r" depth="3" NCoef="0" IVar="1" Cut="3.5708673095703125e+02" cType="1" res="1.2238064408302307e-01" rms="3.2685804367065430e-01" purity="8.6881238222122192e-01" nType="0">
              <Node pos="l" depth="4" NCoef="0" IVar="-1" Cut="0.0000000000000000e+00" cType="1" res="2.5807786732912064e-02" rms="3.8690659403800964e-01" purity="8.0647045373916626e-01" nType="-99"/>
              <Node pos="r" depth="4" NCoef="0" IVar="-1" Cut="0.0000000000000000e+00" cType="1" res="4.2999140918254852e-02" rms="2.4798174202442169e-01" purity="9.3375390768051147e-01" nType="-99"/>
            </Node>
          </Node>
        </Node>
      </Node>
    </BinaryTree>
    <BinaryTree type="DecisionTree" boostWeight="1.0000000000000000e+00" itree="15">
      <Node pos="s" depth="0" NCoef="0" IVar="1" Cut="2.1237950134277344e+02" cType="1" res="-2.6082302792929113e-04" rms="4.0275958180427551e-01" purity="5.0000000000000000e-01" nType="0">
        <Node pos="l" depth="1" NCoef="0" IVar="1" Cut="1.7777207946777344e+02" cType="1" res="-9.5504306256771088e-02" rms="3.0954441428184509e-01" purity="1.2860652804374695e-01" nType="0">
          <Node pos="l" depth="2" NCoef="0" IVar="-1" Cut="0.0000000000000000e+00" cType="1" res="-4.0532063692808151e-02" rms="2.4779371917247772e-01" purity="6.5331168472766876e-02" nType="-99"/>
          <Node pos="r" depth="2" NCoef="0" IVar="-1" Cut="0.0000000000000000e+00" cType="1" res="-8.7871057912707329e-03" rms="4.3215453624725342e-01" purity="3.0429792404174805e-01" nType="-99"/>
        </Node>
        <Node pos="r" depth="1" NCoef="0" IVar="0" Cut="1.1791677093505859e+02" cType="1" res="3.2557595521211624e-02" rms="4.2531323432922363e-01" purity="6.2797248363494873e-01" nType="0">
          <Node pos="l" depth="2" NCoef="0" IVar="4" Cut="3.6562567949295044e-01" cType="1" res="4.6630024909973145e-02" rms="4.1927590966224670e-01" purity="6.4312773942947388e-01" nType="0">
            <Node pos="l" depth="3" NCoef="0" IVar="3" Cut="1.9251642227172852e+00" cType="1" res="-4.7276627272367477e-02" rms="4.1988846659660339e-01" purity="2.8101509809494019e-01" nType="0">
              <Node pos="l" depth="4" NCoef="0" IVar="-1" Cut="0.0000000000000000e+00" cType="1" res="-2.1319577470421791e-02" rms="3.8831359148025513e-01" purity="2.0906165242195129e-01" nType="-99"/>
              <Node pos="r" depth="4" NCoef="0" IVar="-1" Cut="0.0000000000000000e+00" cType="1" res="3.8345844950526953e-03" rms="4.6151742339134216e-01" purity="4.0323475003242493e-01" nType="-99"/>
            </Node>
            <Node pos="r" depth="3" NCoef="0" IVar="0" Cut="2.0147090911865234e+01" cType="1" res="7.0729345083236694e-02" rms="4.1571205854415894e-01" purity="7.3605692386627197e-01" nType="0">
              <Node pos="l" depth="4" NCoef="0" IVar="-1" Cut="0.0000000000000000e+00" cType="1" res="-5.8908103965222836e-03" rms="4.4614323973655701e-01" purity="6.3284564018249512e-01" nType="-99"/>
              <Node pos="r" depth="4" NCoef="0" IVar="-1" Cut="0.0000000000000000e+00" cType="1" res="2.0707193762063980e-02" rms="4.0826234221458435e-01" purity="7.5322079658508301e-01" nType="-99"/>
            </Node>
          </Node>
          <Node pos="r" depth="2" NCoef="0" IVar="-1" Cut="0.0000000000000000e+00" cType="1" res="-2.7453344315290451e-02" rms="4.5903095602989197e-01" purity="4.6464085578918457e-01" nType="-99"/>
        </Node>
      </Node>
    </BinaryTree>
    <BinaryTree type="DecisionTree" boostWeight="1.0000000000000000e+00" itree="16">
      <Node pos="s" depth="0" NCoef="0" IVar="2" Cut="1.1003468322753906e+02" cType="1" res="-2.6642653392627835e-04" rms="4.0093779563903809e-01" purity="5.0000000000000000e-01" nType="0">
        <Node pos="l" depth="1" NCoef="0" IVar="-1" Cut="0.0000000000000000e+00" cType="1" res="-3.6339279264211655e-02" rms="3.4168922901153564e-01" purity="2.2759364545345306e-01" nType="-99"/>
        <Node pos="r" depth="1" NCoef="0" IVar="4" Cut="2.4387857317924500e-01" cType="1" res="2.0801130682229996e-02" rms="4.0554910898208618e-01" purity="5.4312849044799805e-01" nType="0">
          <Node pos="l" depth="2" NCoef="0" IVar="2" Cut="1.7970816040039062e+02" cType="1" res="-5.5087581276893616e-02" rms="3.5721141099929810e-01" purity="1.7953735589981079e-01" nType="0">
            <Node pos="l" depth="3" NCoef="0" IVar="3" Cut="2.1810729801654816e-01" cType="1" res="-2.4684136733412743e-02" rms="3.6292022466659546e-01" purity="1.9544522464275360e-01" nType="0">
              <Node pos="l" depth="4" NCoef="0" IVar="-1" Cut="0.0000000000000000e+00" cType="1" res="-3.1083572655916214e-02" rms="2.4825222790241241e-01" purity="6.7913517355918884e-02" nType="-99"/>
              <Node pos="r" depth="4" NCoef="0" IVar="-1" Cut="0.0000000000000000e+00" cType="1" res="3.8679600693285465e-03" rms="4.2630347609519958e-01" purity="2.9300969839096069e-01" nType="-99"/>
            </Node>
            <Node pos="r" depth="3" NCoef="0" IVar="3" Cut="1.2418072223663330e+00" cType="1" res="-9.2940740287303925e-02" rms="3.4626263380050659e-01" purity="1.5973156690597534e-01" nType="0">
              <Node pos="l" depth="4" NCoef="0" IVar="-1" Cut="0.0000000000000000e+00" cType="1" res="-3.4184377640485764e-02" rms="2.8594586253166199e-01" purity="9.3408122658729553e-02" nType="-99"/>
              <Node pos="r" depth="4" NCoef="0" IVar="-1" Cut="0.0000000000000000e+00" cType="1" res="-1.7628064379096031e-02" rms="4.1172316670417786e-01" purity="2.4708265066146851e-01" nType="-99"/>
            </Node>
          </Node>
          <Node pos="r" depth="2" NCoef="0" IVar="4" Cut="2.3319220542907715e+00" cType="1" res="5.6021925061941147e-02" rms="4.2150747776031494e-01" purity="7.1187520027160645e-01" nType="0">
            <Node pos="l" depth="3" NCoef="0" IVar="0" Cut="4.0516372680664062e+01" cType="1" res="3.2328501343727112e-02" rms="4.5902121067047119e-01" purity="6.3004785776138306e-01" nType="0">
              <Node pos="l" depth="4" NCoef="0" IVar="-1" Cut="0.0000000000000000e+00" cType="1" res="-5.1650218665599823e-03" rms="4.6263945102691650e-01" purity="5.6042873859405518e-01" nType="-99"/>
              <Node pos="r" depth="4" NCoef="0" IVar="-1" Cut="0.0000000000000000e+00" cType="1" res="1.1947760358452797e-02" rms="4.5571264624595642e-01" purity="6.5738898515701294e-01" nType="-99"/>
            </Node>
            <Node pos="r" depth="3" NCoef="0" IVar="5" Cut="-1.9073982536792755e-01" cType="1" res="9.5400877296924591e-02" rms="3.4682145714759827e-01" purity="8.4787386655807495e-01" nType="0">
              <Node pos="l" depth="4" NCoef="0" IVar="-1" Cut="0.0000000000000000e+00" cType="1" res="1.6064666211605072e-02" rms="3.8877677917480469e-01" purity="7.9415339231491089e-01" nType="-99"/>
              <Node pos="r" depth="4" NCoef="0" IVar="-1" Cut="0.0000000000000000e+00" cType="1" res="3.1504303216934204e-02" rms="3.2540273666381836e-01" purity="8.7156921625137329e-01" nType="-99"/>
            </Node>
          </Node>
        </Node>
      </Node>
    </BinaryTree>
    <BinaryTree type="DecisionTree" boostWeight="1.0000000000000000e+00" itree="17">
      <Node pos="s" depth="0" NCoef="0" IVar="2" Cut="1.1003468322753906e+02" cType="1" res="-2.4729105643928051e-04" rms="3.9929032325744629e-01" purity="5.0000000000000000e-01" nType="0">
        <Node pos="l" depth="1" NCoef="0" IVar="-1" Cut="0.0000000000000000e+00" cType="1" res="-3.3195085823535919e-02" rms="3.4135144948959351e-01" purity="2.2759364545345306e-01" nType="-99"/>
        <Node pos="r" depth="1" NCoef="0" IVar="4" Cut="7.3163574934005737e-01" cType="1" res="1.8726913258433342e-02" rms="4.0446609258651733e-01" purity="5.4312849044799805e-01" nType="0">
          <Node pos="l" depth="2" NCoef="0" IVar="4" Cut="1.7842685803771019e-02" cType="1" res="-3.8379330188035965e-02" rms="3.9021360874176025e-01" purity="2.4911816418170929e-01" nType="0">
            <Node pos="l" depth="3" NCoef="0" IVar="2" Cut="1.7970816040039062e+02" cType="1" res="-6.6629767417907715e-02" rms="3.2774719595909119e-01" purity="1.3240806758403778e-01" nType="0">
              <Node pos="l" depth="4" NCoef="0" IVar="-1" Cut="0.0000000000000000e+00" cType="1" res="-1.4682833105325699e-02" rms="3.3517968654632568e-01" purity="1.4362794160842896e-01" nType="-99"/>
              <Node pos="r" depth="4" NCoef="0" IVar="-1" Cut="0.0000000000000000e+00" cType="1" res="-2.9188899323344231e-02" rms="3.1559017300605774e-01" purity="1.1815626174211502e-01" nType="-99"/>
            </Node>
            <Node pos="r" depth="3" NCoef="0" IVar="2" Cut="1.7910108947753906e+02" cType="1" res="2.0463284105062485e-02" rms="4.9046549201011658e-01" purity="4.9221274256706238e-01" nType="0">
              <Node pos="l" depth="4" NCoef="0" IVar="-1" Cut="0.0000000000000000e+00" cType="1" res="1.5635676681995392e-02" rms="4.8366871476173401e-01" purity="5.3747761249542236e-01" nType="-99"/>
              <Node pos="r" depth="4" NCoef="0" IVar="-1" Cut="0.0000000000000000e+00" cType="1" res="-7.5426544062793255e-03" rms="4.9096521735191345e-01" purity="4.4515812397003174e-01" nType="-99"/>
            </Node>
          </Node>
          <Node pos="r" depth="2" NCoef="0" IVar="1" Cut="3.9276544189453125e+02" cType="1" res="5.7608656585216522e-02" rms="4.0935584902763367e-01" purity="7.4331039190292358e-01" nType="0">
            <Node pos="l" depth="3" NCoef="0" IVar="0" Cut="3.3027244567871094e+01" cType="1" res="3.1981918960809708e-02" rms="4.3453016877174377e-01" purity="6.8342363834381104e-01" nType="0">
              <Node pos="l" depth="4" NCoef="0" IVar="-1" Cut="0.0000000000000000e+00" cType="1" res="-1.5000592917203903e-02" rms="4.4798257946968079e-01" purity="5.5512219667434692e-01" nType="-99"/>
              <Node pos="r" depth="4" NCoef="0" IVar="-1" Cut="0.0000000000000000e+00" cType="1" res="1.4181150123476982e-02" rms="4.2660251259803772e-01" purity="7.2001498937606812e-01" nType="-99"/>
            </Node>
            <Node pos="r" depth="3" NCoef="0" IVar="0" Cut="8.8442131042480469e+01" cType="1" res="8.7941423058509827e-02" rms="3.7513908743858337e-01" purity="8.1419456005096436e-01" nType="0">
              <Node pos="l" depth="4" NCoef="0" IVar="-1" Cut="0.0000000000000000e+00" cType="1" res="2.6556264609098434e-02" rms="3.6043354868888855e-01" purity="8.3255839347839355e-01" nType="-99"/>
              <Node pos="r" depth="4" NCoef="0" IVar="-1" Cut="0.0000000000000000e+00" cType="1" res="1.3459760695695877e-02" rms="4.1221043467521667e-01" purity="7.6198089122772217e-01" nType="-99"/>
            </Node>
          </Node>
        </Node>
      </Node>
    </BinaryTree>
    <BinaryTree type="DecisionTree" boostWeight="1.0000000000000000e+00" itree="18">
      <Node pos="s" depth="0" NCoef="0" IVar="1" Cut="2.1237950134277344e+02" cType="1" res="-2.2704865841660649e-04" rms="3.9774546027183533e-01" purity="5.0000000000000000e-01" nType="0">
        <Node pos="l" depth="1" NCoef="0" IVar="1" Cut="1.7777207946777344e+02" cType="1" res="-7.5487785041332245e-02" rms="3.0735322833061218e-01" purity="1.2860652804374695e-01" nType="0">
          <Node pos="l" depth="2" NCoef="0" IVar="-1" Cut="0.0000000000000000e+00" cType="1" res="-3.6174625158309937e-02" rms="2.4661332368850708e-01" purity="6.5331168472766876e-02" nType="-99"/>
          <Node pos="r" depth="2" NCoef="0" IVar="-1" Cut="0.0000000000000000e+00" cType="1" res="-6.4618298783898354e-03" rms="4.2971274256706238e-01" purity="3.0429792404174805e-01" nType="-99"/>
        </Node>
        <Node pos="r" depth="1" NCoef="0" IVar="0" Cut="1.1791677093505859e+02" cType="1" res="2.5705838575959206e-02" rms="4.2135351896286011e-01" purity="6.2797248363494873e-01" nType="0">
          <Node pos="l" depth="2" NCoef="0" IVar="4" Cut="1.4625027179718018e+00" cType="1" res="3.8425568491220474e-02" rms="4.1564041376113892e-01" purity="6.4312773942947388e-01" nType="0">
            <Node pos="l" depth="3" NCoef="0" IVar="0" Cut="4.0257823944091797e+01" cType="1" res="-1.9833201076835394e-03" rms="4.5522773265838623e-01" purity="4.5077547430992126e-01" nType="0">
              <Node pos="l" depth="4" NCoef="0" IVar="-1" Cut="0.0000000000000000e+00" cType="1" res="-1.2589442543685436e-02" rms="4.4279241561889648e-01" purity="3.7761673331260681e-01" nType="-99"/>
              <Node pos="r" depth="4" NCoef="0" IVar="-1" Cut="0.0000000000000000e+00" cType="1" res="5.5026477202773094e-03" rms="4.5895990729331970e-01" purity="4.8721951246261597e-01" nType="-99"/>
            </Node>
            <Node pos="r" depth="3" NCoef="0" IVar="5" Cut="1.4021825790405273e+00" cType="1" res="7.3275573551654816e-02" rms="3.7470185756683350e-01" purity="8.0901896953582764e-01" nType="0">
              <Node pos="l" depth="4" NCoef="0" IVar="-1" Cut="0.0000000000000000e+00" cType="1" res="2.2394888103008270e-02" rms="3.6885133385658264e-01" purity="8.2068806886672974e-01" nType="-99"/>
              <Node pos="r" depth="4" NCoef="0" IVar="-1" Cut="0.0000000000000000e+00" cType="1" res="5.4168798960745335e-03" rms="4.0066400170326233e-01" purity="7.4618858098983765e-01" nType="-99"/>
            </Node>
          </Node>
          <Node pos="r" depth="2" NCoef="0" IVar="-1" Cut="0.0000000000000000e+00" cType="1" res="-2.5946743786334991e-02" rms="4.5665973424911499e-01" purity="4.6464085578918457e-01" nType="-99"/>
        </Node>
      </Node>
    </BinaryTree>
    <BinaryTree type="DecisionTree" boostWeight="1.0000000000000000e+00" itree="19">
      <Node pos="s" depth="0" NCoef="0" IVar="2" Cut="1.1003468322753906e+02" cType="1" res="-2.1788509911857545e-04" rms="3.9651539921760559e-01" purity="5.0000000000000000e-01" nType="0">
        <Node pos="l" depth="1" NCoef="0" IVar="-1" Cut="0.0000000000000000e+00" cType="1" res="-2.9996249824762344e-02" rms="3.3977562189102173e-01" purity="2.2759364545345306e-01" nType="-99"/>
        <Node pos="r" depth="1" NCoef="0" IVar="3" Cut="1.5853604078292847e+00" cType="1" res="1.6374956816434860e-02" rms="4.0227410197257996e-01" purity="5.4312849044799805e-01" nType="0">
          <Node pos="l" depth="2" NCoef="0" IVar="1" Cut="3.0996008300781250e+02" cType="1" res="-4.0996350347995758e-02" rms="3.7651062011718750e-01" purity="2.5479623675346375e-01" nType="0">
            <Node pos="l" depth="3" NCoef="0" IVar="5" Cut="7.8593307733535767e-01" cType="1" res="-6.3960045576095581e-02" rms="3.4080794453620911e-01" purity="1.6279408335685730e-01" nType="0">
              <Node pos="l" depth="4" NCoef="0" IVar="-1" Cut="0.0000000000000000e+00" cType="1" res="-9.5718959346413612e-03" rms="3.5072174668312073e-01" purity="1.9202445447444916e-01" nType="-99"/>
              <Node pos="r" depth="4" NCoef="0" IVar="-1" Cut="0.0000000000000000e+00" cType="1" res="-3.7497162818908691e-02" rms="3.1677547097206116e-01" purity="1.1639124900102615e-01" nType="-99"/>
            </Node>
            <Node pos="r" depth="3" NCoef="0" IVar="-1" Cut="0.0000000000000000e+00" cType="1" res="3.7160243373364210e-03" rms="4.4870501756668091e-01" purity="4.8547640442848206e-01" nType="-99"/>
          </Node>
          <Node pos="r" depth="2" NCoef="0" IVar="4" Cut="2.1949071884155273e+00" cType="1" res="4.4570352882146835e-02" rms="4.1142743825912476e-01" purity="6.8483072519302368e-01" nType="0">
            <Node pos="l" depth="3" NCoef="0" IVar="1" Cut="2.5860485839843750e+02" cType="1" res="2.2775756195187569e-02" rms="4.4894465804100037e-01" purity="5.6902712583541870e-01" nType="0">
              <Node pos="l" depth="4" NCoef="0" IVar="-1" Cut="0.0000000000000000e+00" cType="1" res="-1.0812900960445404e-02" rms="4.2961236834526062e-01" purity="2.8748095035552979e-01" nType="-99"/>
              <Node pos="r" depth="4" NCoef="0" IVar="-1" Cut="0.0000000000000000e+00" cType="1" res="1.0514408349990845e-02" rms="4.5311149954795837e-01" purity="6.6709482669830322e-01" nType="-99"/>
            </Node>
            <Node pos="r" depth="3" NCoef="0" IVar="5" Cut="1.7362470924854279e-01" cType="1" res="7.4306093156337738e-02" rms="3.5171049833297729e-01" purity="8.4282892942428589e-01" nType="0">
              <Node pos="l" depth="4" NCoef="0" IVar="-1" Cut="0.0000000000000000e+00" cType="1" res="1.4567275531589985e-02" rms="3.8232398033142090e-01" purity="8.1058466434478760e-01" nType="-99"/>
              <Node pos="r" depth="4" NCoef="0" IVar="-1" Cut="0.0000000000000000e+00" cType="1" res="2.7580061927437782e-02" rms="3.2485944032669067e-01" purity="8.6782377958297729e-01" nType="-99"/>
            </Node>
          </Node>
        </Node>
      </Node>
    </BinaryTree>
    <BinaryTree type="DecisionTree" boostWeight="1.0000000000000000e+00" itree="20">
      <Node pos="s" depth="0" NCoef="0" IVar="2" Cut="1.1003468322753906e+02" cType="1" res="-1.9875004363711923e-04" rms="3.9531379938125610e-01" purity="5.0000000000000000e-01" nType="0">
        <Node pos="l" depth="1" NCoef="0" IVar="-1" Cut="0.0000000000000000e+00" cType="1" res="-2.7381150051951408e-02" rms="3.3960673213005066e-01" purity="2.2759364545345306e-01" nType="-99"/>
        <Node pos="r" depth="1" NCoef="0" IVar="3" Cut="1.5853604078292847e+00" cType="1" res="1.4745372347533703e-02" rms="4.0139874815940857e-01" purity="5.4312849044799805e-01" nType="0">
          <Node pos="l" depth="2" NCoef="0" IVar="4" Cut="3.8533270359039307e-02" cType="1" res="-3.6955770105123520e-02" rms="3.7570545077323914e-01" purity="2.5479623675346375e-01" nType="0">
            <Node pos="l" depth="3" NCoef="0" IVar="2" Cut="1.7974272155761719e+02" cType="1" res="-6.3974633812904358e-02" rms="2.8503197431564331e-01" purity="9.3045301735401154e-02" nType="0">
              <Node pos="l" depth="4" NCoef="0" IVar="-1" Cut="0.0000000000000000e+00" cType="1" res="-1.9174886867403984e-02" rms="2.9363423585891724e-01" purity="1.0200297832489014e-01" nType="-99"/>
              <Node pos="r" depth="4" NCoef="0" IVar="-1" Cut="0.0000000000000000e+00" cType="1" res="-3.1746499240398407e-02" rms="2.7060392498970032e-01" purity="8.0263108015060425e-02" nType="-99"/>
            </Node>
            <Node pos="r" depth="3" NCoef="0" IVar="5" Cut="3.0119439959526062e-01" cType="1" res="4.1895271278917789e-03" rms="4.7915041446685791e-01" purity="5.0111627578735352e-01" nType="0">
              <Node pos="l" depth="4" NCoef="0" IVar="-1" Cut="0.0000000000000000e+00" cType="1" res="9.8654823377728462e-03" rms="4.8014700412750244e-01" purity="5.5047911405563354e-01" nType="-99"/>
              <Node pos="r" depth="4" NCoef="0" IVar="-1" Cut="0.0000000000000000e+00" cType="1" res="-8.0882497131824493e-03" rms="4.7432163357734680e-01" purity="4.5181345939636230e-01" nType="-99"/>
            </Node>
          </Node>
          <Node pos="r" depth="2" NCoef="0" IVar="5" Cut="-1.4013481140136719e+00" cType="1" res="4.0154140442609787e-02" rms="4.1106477379798889e-01" purity="6.8483072519302368e-01" nType="0">
            <Node pos="l" depth="3" NCoef="0" IVar="-1" Cut="0.0000000000000000e+00" cType="1" res="-8.6453612893819809e-03" rms="4.3663322925567627e-01" purity="5.7374215126037598e-01" nType="-99"/>
            <Node pos="r" depth="3" NCoef="0" IVar="5" Cut="1.7381794452667236e+00" cType="1" res="4.8087134957313538e-02" rms="4.0747410058975220e-01" purity="6.9650220870971680e-01" nType="0">
              <Node pos="l" depth="4" NCoef="0" IVar="-1" Cut="0.0000000000000000e+00" cType="1" res="1.4584575779736042e-02" rms="4.0338268876075745e-01" purity="7.0773905515670776e-01" nType="-99"/>
              <Node pos="r" depth="4" NCoef="0" IVar="-1" Cut="0.0000000000000000e+00" cType="1" res="-7.1869841776788235e-03" rms="4.3539717793464661e-01" purity="5.9462738037109375e-01" nType="-99"/>
            </Node>
          </Node>
        </Node>
      </Node>
    </BinaryTree>
    <BinaryTree type="DecisionTree" boostWeight="1.0000000000000000e+00" itree="21">
      <Node pos="s" depth="0" NCoef="0" IVar="1" Cut="2.9113662719726562e+02" cType="1" res="-1.9506197713781148e-04" rms="3.9439705014228821e-01" purity="5.0000000000000000e-01" nType="0">
        <Node pos="l" depth="1" NCoef="0" IVar="1" Cut="2.4501910400390625e+02" cType="1" res="-3.7957869470119476e-02" rms="3.6905291676521301e-01" purity="2.7679142355918884e-01" nType="0">
          <Node pos="l" depth="2" NCoef="0" IVar="0" Cut="3.7661449432373047e+01" cType="1" res="-5.7705707848072052e-02" rms="3.4069129824638367e-01" purity="1.8624666333198547e-01" nType="0">
            <Node pos="l" depth="3" NCoef="0" IVar="-1" Cut="0.0000000000000000e+00" cType="1" res="-3.3539712429046631e-02" rms="2.7464622259140015e-01" purity="1.1161747574806213e-01" nType="-99"/>
            <Node pos="r" depth="3" NCoef="0" IVar="2" Cut="1.5799851989746094e+02" cType="1" res="-3.5943914204835892e-02" rms="3.7151661515235901e-01" purity="2.2895130515098572e-01" nType="0">
              <Node pos="l" depth="4" NCoef="0" IVar="-1" Cut="0.0000000000000000e+00" cType="1" res="-3.7095409352332354e-03" rms="3.8683217763900757e-01" purity="2.6702967286109924e-01" nType="-99"/>
              <Node pos="r" depth="4" NCoef="0" IVar="-1" Cut="0.0000000000000000e+00" cType="1" res="-2.2294839844107628e-02" rms="3.4403273463249207e-01" purity="1.7121696472167969e-01" nType="-99"/>
            </Node>
          </Node>
          <Node pos="r" depth="2" NCoef="0" IVar="4" Cut="1.4622869491577148e+00" cType="1" res="2.2381277754902840e-02" rms="4.3917307257652283e-01" purity="5.5344921350479126e-01" nType="0">
            <Node pos="l" depth="3" NCoef="0" IVar="-1" Cut="0.0000000000000000e+00" cType="1" res="-5.8609200641512871e-03" rms="4.5759490132331848e-01" purity="3.5758170485496521e-01" nType="-99"/>
            <Node pos="r" depth="3" NCoef="0" IVar="-1" Cut="0.0000000000000000e+00" cType="1" res="1.8375514075160027e-02" rms="4.1174462437629700e-01" purity="7.6835864782333374e-01" nType="-99"/>
          </Node>
        </Node>
        <Node pos="r" depth="1" NCoef="0" IVar="2" Cut="2.9562344360351562e+02" cType="1" res="3.2488588243722916e-02" rms="4.1230216622352600e-01" purity="6.9318664073944092e-01" nType="0">
          <Node pos="l" depth="2" NCoef="0" IVar="5" Cut="-9.1743648052215576e-01" cType="1" res="4.3701067566871643e-02" rms="4.1026005148887634e-01" purity="7.1086066961288452e-01" nType="0">
            <Node pos="l" depth="3" NCoef="0" IVar="-1" Cut="0.0000000000000000e+00" cType="1" res="-3.3764673862606287e-03" rms="4.3468931317329407e-01" purity="6.2242966890335083e-01" nType="-99"/>
            <Node pos="r" depth="3" NCoef="0" IVar="5" Cut="1.4911150932312012e+00" cType="1" res="5.5010985583066940e-02" rms="4.0431401133537292e-01" purity="7.2828102111816406e-01" nType="0">
              <Node pos="l" depth="4" NCoef="0" IVar="-1" Cut="0.0000000000000000e+00" cType="1" res="1.6721596941351891e-02" rms="4.0017020702362061e-01" purity="7.4042809009552002e-01" nType="-99"/>
              <Node pos="r" depth="4" NCoef="0" IVar="-1" Cut="0.0000000000000000e+00" cType="1" res="-1.9146386766806245e-03" rms="4.2389389872550964e-01" purity="6.5258467197418213e-01" nType="-99"/>
            </Node>
          </Node>
          <Node pos="r" depth="2" NCoef="0" IVar="-1" Cut="0.0000000000000000e+00" cType="1" res="-7.1892798878252506e-03" rms="4.1798317432403564e-01" purity="5.9853017330169678e-01" nType="-99"/>
        </Node>
      </Node>
    </BinaryTree>
    <BinaryTree type="DecisionTree" boostWeight="1.0000000000000000e+00" itree="22">
